digraph Tree {
node [shape=box] ;
0 [label="X[3] <= 410.5\nentropy = 0.5206\nsamples = 45211\nvalue = [39922, 5289]"] ;
1 [label="X[49] <= 0.5\nentropy = 0.357\nsamples = 37668\nvalue = [35121, 2547]"] ;
0 -> 1 [labeldistance=2.5, labelangle=45, headlabel="True"] ;
2 [label="X[9] <= 0.5\nentropy = 0.2879\nsamples = 36493\nvalue = [34655, 1838]"] ;
1 -> 2 ;
3 [label="X[3] <= 129.5\nentropy = 0.3638\nsamples = 25534\nvalue = [23761, 1773]"] ;
2 -> 3 ;
4 [label="X[3] <= 77.5\nentropy = 0.125\nsamples = 10804\nvalue = [10619, 185]"] ;
3 -> 4 ;
5 [label="X[38] <= 0.5\nentropy = 0.0318\nsamples = 4885\nvalue = [4869, 16]"] ;
4 -> 5 ;
6 [label="X[2] <= 2.5\nentropy = 0.0211\nsamples = 4429\nvalue = [4420, 9]"] ;
5 -> 6 ;
7 [label="X[5] <= 237.5\nentropy = 0.2918\nsamples = 39\nvalue = [37, 2]"] ;
6 -> 7 ;
8 [label="X[1] <= 8936.5\nentropy = 0.1756\nsamples = 38\nvalue = [37, 1]"] ;
7 -> 8 ;
9 [label="entropy = 0.0\nsamples = 36\nvalue = [36, 0]"] ;
8 -> 9 ;
10 [label="X[4] <= 2.5\nentropy = 1.0\nsamples = 2\nvalue = [1, 1]"] ;
8 -> 10 ;
11 [label="entropy = 0.0\nsamples = 1\nvalue = [1, 0]"] ;
10 -> 11 ;
12 [label="entropy = 0.0\nsamples = 1\nvalue = [0, 1]"] ;
10 -> 12 ;
13 [label="entropy = 0.0\nsamples = 1\nvalue = [0, 1]"] ;
7 -> 13 ;
14 [label="X[4] <= 3.5\nentropy = 0.0171\nsamples = 4390\nvalue = [4383, 7]"] ;
6 -> 14 ;
15 [label="X[35] <= 0.5\nentropy = 0.0262\nsamples = 2676\nvalue = [2669, 7]"] ;
14 -> 15 ;
16 [label="X[42] <= 0.5\nentropy = 0.0176\nsamples = 2433\nvalue = [2429, 4]"] ;
15 -> 16 ;
17 [label="X[0] <= 23.5\nentropy = 0.0138\nsamples = 2412\nvalue = [2409, 3]"] ;
16 -> 17 ;
18 [label="X[28] <= 0.5\nentropy = 0.258\nsamples = 23\nvalue = [22, 1]"] ;
17 -> 18 ;
19 [label="entropy = 0.0\nsamples = 22\nvalue = [22, 0]"] ;
18 -> 19 ;
20 [label="entropy = 0.0\nsamples = 1\nvalue = [0, 1]"] ;
18 -> 20 ;
21 [label="X[2] <= 11.5\nentropy = 0.0098\nsamples = 2389\nvalue = [2387, 2]"] ;
17 -> 21 ;
22 [label="X[2] <= 9.5\nentropy = 0.0339\nsamples = 565\nvalue = [563, 2]"] ;
21 -> 22 ;
23 [label="entropy = 0.0\nsamples = 428\nvalue = [428, 0]"] ;
22 -> 23 ;
24 [label="X[44] <= 0.5\nentropy = 0.1099\nsamples = 137\nvalue = [135, 2]"] ;
22 -> 24 ;
25 [label="X[3] <= 40.0\nentropy = 0.0627\nsamples = 136\nvalue = [135, 1]"] ;
24 -> 25 ;
26 [label="X[3] <= 38.5\nentropy = 0.2668\nsamples = 22\nvalue = [21, 1]"] ;
25 -> 26 ;
27 [label="entropy = 0.0\nsamples = 20\nvalue = [20, 0]"] ;
26 -> 27 ;
28 [label="X[1] <= 283.5\nentropy = 1.0\nsamples = 2\nvalue = [1, 1]"] ;
26 -> 28 ;
29 [label="entropy = 0.0\nsamples = 1\nvalue = [0, 1]"] ;
28 -> 29 ;
30 [label="entropy = 0.0\nsamples = 1\nvalue = [1, 0]"] ;
28 -> 30 ;
31 [label="entropy = 0.0\nsamples = 114\nvalue = [114, 0]"] ;
25 -> 31 ;
32 [label="entropy = 0.0\nsamples = 1\nvalue = [0, 1]"] ;
24 -> 32 ;
33 [label="entropy = 0.0\nsamples = 1824\nvalue = [1824, 0]"] ;
21 -> 33 ;
34 [label="X[22] <= 0.5\nentropy = 0.2762\nsamples = 21\nvalue = [20, 1]"] ;
16 -> 34 ;
35 [label="entropy = 0.0\nsamples = 16\nvalue = [16, 0]"] ;
34 -> 35 ;
36 [label="X[34] <= 0.5\nentropy = 0.7219\nsamples = 5\nvalue = [4, 1]"] ;
34 -> 36 ;
37 [label="entropy = 0.0\nsamples = 4\nvalue = [4, 0]"] ;
36 -> 37 ;
38 [label="entropy = 0.0\nsamples = 1\nvalue = [0, 1]"] ;
36 -> 38 ;
39 [label="X[1] <= 225.5\nentropy = 0.096\nsamples = 243\nvalue = [240, 3]"] ;
15 -> 39 ;
40 [label="X[1] <= 205.5\nentropy = 0.3228\nsamples = 51\nvalue = [48, 3]"] ;
39 -> 40 ;
41 [label="X[24] <= 0.5\nentropy = 0.1461\nsamples = 48\nvalue = [47, 1]"] ;
40 -> 41 ;
42 [label="entropy = 0.0\nsamples = 47\nvalue = [47, 0]"] ;
41 -> 42 ;
43 [label="entropy = 0.0\nsamples = 1\nvalue = [0, 1]"] ;
41 -> 43 ;
44 [label="X[2] <= 20.5\nentropy = 0.9183\nsamples = 3\nvalue = [1, 2]"] ;
40 -> 44 ;
45 [label="entropy = 0.0\nsamples = 1\nvalue = [1, 0]"] ;
44 -> 45 ;
46 [label="entropy = 0.0\nsamples = 2\nvalue = [0, 2]"] ;
44 -> 46 ;
47 [label="entropy = 0.0\nsamples = 192\nvalue = [192, 0]"] ;
39 -> 47 ;
48 [label="entropy = 0.0\nsamples = 1714\nvalue = [1714, 0]"] ;
14 -> 48 ;
49 [label="X[2] <= 12.0\nentropy = 0.1145\nsamples = 456\nvalue = [449, 7]"] ;
5 -> 49 ;
50 [label="X[3] <= 62.5\nentropy = 0.043\nsamples = 427\nvalue = [425, 2]"] ;
49 -> 50 ;
51 [label="entropy = 0.0\nsamples = 325\nvalue = [325, 0]"] ;
50 -> 51 ;
52 [label="X[2] <= 4.5\nentropy = 0.1392\nsamples = 102\nvalue = [100, 2]"] ;
50 -> 52 ;
53 [label="entropy = 0.0\nsamples = 64\nvalue = [64, 0]"] ;
52 -> 53 ;
54 [label="X[6] <= 3.5\nentropy = 0.2975\nsamples = 38\nvalue = [36, 2]"] ;
52 -> 54 ;
55 [label="X[27] <= 0.5\nentropy = 0.1793\nsamples = 37\nvalue = [36, 1]"] ;
54 -> 55 ;
56 [label="entropy = 0.0\nsamples = 31\nvalue = [31, 0]"] ;
55 -> 56 ;
57 [label="X[14] <= 0.5\nentropy = 0.65\nsamples = 6\nvalue = [5, 1]"] ;
55 -> 57 ;
58 [label="entropy = 0.0\nsamples = 5\nvalue = [5, 0]"] ;
57 -> 58 ;
59 [label="entropy = 0.0\nsamples = 1\nvalue = [0, 1]"] ;
57 -> 59 ;
60 [label="entropy = 0.0\nsamples = 1\nvalue = [0, 1]"] ;
54 -> 60 ;
61 [label="X[3] <= 74.5\nentropy = 0.6632\nsamples = 29\nvalue = [24, 5]"] ;
49 -> 61 ;
62 [label="X[14] <= 0.5\nentropy = 0.5033\nsamples = 27\nvalue = [24, 3]"] ;
61 -> 62 ;
63 [label="entropy = 0.0\nsamples = 15\nvalue = [15, 0]"] ;
62 -> 63 ;
64 [label="X[17] <= 0.5\nentropy = 0.8113\nsamples = 12\nvalue = [9, 3]"] ;
62 -> 64 ;
65 [label="entropy = 0.0\nsamples = 5\nvalue = [5, 0]"] ;
64 -> 65 ;
66 [label="X[3] <= 61.5\nentropy = 0.9852\nsamples = 7\nvalue = [4, 3]"] ;
64 -> 66 ;
67 [label="X[23] <= 0.5\nentropy = 0.7219\nsamples = 5\nvalue = [4, 1]"] ;
66 -> 67 ;
68 [label="entropy = 0.0\nsamples = 4\nvalue = [4, 0]"] ;
67 -> 68 ;
69 [label="entropy = 0.0\nsamples = 1\nvalue = [0, 1]"] ;
67 -> 69 ;
70 [label="entropy = 0.0\nsamples = 2\nvalue = [0, 2]"] ;
66 -> 70 ;
71 [label="entropy = 0.0\nsamples = 2\nvalue = [0, 2]"] ;
61 -> 71 ;
72 [label="X[42] <= 0.5\nentropy = 0.1871\nsamples = 5919\nvalue = [5750, 169]"] ;
4 -> 72 ;
73 [label="X[0] <= 28.5\nentropy = 0.1635\nsamples = 5826\nvalue = [5686, 140]"] ;
72 -> 73 ;
74 [label="X[16] <= 0.5\nentropy = 0.4152\nsamples = 418\nvalue = [383, 35]"] ;
73 -> 74 ;
75 [label="X[2] <= 26.5\nentropy = 0.0974\nsamples = 159\nvalue = [157, 2]"] ;
74 -> 75 ;
76 [label="entropy = 0.0\nsamples = 137\nvalue = [137, 0]"] ;
75 -> 76 ;
77 [label="X[2] <= 27.5\nentropy = 0.4395\nsamples = 22\nvalue = [20, 2]"] ;
75 -> 77 ;
78 [label="X[1] <= 554.5\nentropy = 1.0\nsamples = 4\nvalue = [2, 2]"] ;
77 -> 78 ;
79 [label="entropy = 0.0\nsamples = 2\nvalue = [0, 2]"] ;
78 -> 79 ;
80 [label="entropy = 0.0\nsamples = 2\nvalue = [2, 0]"] ;
78 -> 80 ;
81 [label="entropy = 0.0\nsamples = 18\nvalue = [18, 0]"] ;
77 -> 81 ;
82 [label="X[35] <= 0.5\nentropy = 0.5503\nsamples = 259\nvalue = [226, 33]"] ;
74 -> 82 ;
83 [label="X[30] <= 0.5\nentropy = 0.4647\nsamples = 223\nvalue = [201, 22]"] ;
82 -> 83 ;
84 [label="entropy = 0.0\nsamples = 38\nvalue = [38, 0]"] ;
83 -> 84 ;
85 [label="X[3] <= 114.5\nentropy = 0.5262\nsamples = 185\nvalue = [163, 22]"] ;
83 -> 85 ;
86 [label="X[2] <= 18.0\nentropy = 0.3934\nsamples = 129\nvalue = [119, 10]"] ;
85 -> 86 ;
87 [label="X[2] <= 16.5\nentropy = 0.5248\nsamples = 76\nvalue = [67, 9]"] ;
86 -> 87 ;
88 [label="X[2] <= 9.5\nentropy = 0.4516\nsamples = 74\nvalue = [67, 7]"] ;
87 -> 88 ;
89 [label="X[3] <= 89.5\nentropy = 0.246\nsamples = 49\nvalue = [47, 2]"] ;
88 -> 89 ;
90 [label="X[25] <= 0.5\nentropy = 0.7219\nsamples = 10\nvalue = [8, 2]"] ;
89 -> 90 ;
91 [label="X[18] <= 0.5\nentropy = 0.5033\nsamples = 9\nvalue = [8, 1]"] ;
90 -> 91 ;
92 [label="entropy = 0.0\nsamples = 7\nvalue = [7, 0]"] ;
91 -> 92 ;
93 [label="X[34] <= 0.5\nentropy = 1.0\nsamples = 2\nvalue = [1, 1]"] ;
91 -> 93 ;
94 [label="entropy = 0.0\nsamples = 1\nvalue = [0, 1]"] ;
93 -> 94 ;
95 [label="entropy = 0.0\nsamples = 1\nvalue = [1, 0]"] ;
93 -> 95 ;
96 [label="entropy = 0.0\nsamples = 1\nvalue = [0, 1]"] ;
90 -> 96 ;
97 [label="entropy = 0.0\nsamples = 39\nvalue = [39, 0]"] ;
89 -> 97 ;
98 [label="X[4] <= 1.5\nentropy = 0.7219\nsamples = 25\nvalue = [20, 5]"] ;
88 -> 98 ;
99 [label="entropy = 0.0\nsamples = 10\nvalue = [10, 0]"] ;
98 -> 99 ;
100 [label="X[6] <= 2.5\nentropy = 0.9183\nsamples = 15\nvalue = [10, 5]"] ;
98 -> 100 ;
101 [label="X[1] <= 66.0\nentropy = 0.994\nsamples = 11\nvalue = [6, 5]"] ;
100 -> 101 ;
102 [label="entropy = 0.0\nsamples = 2\nvalue = [2, 0]"] ;
101 -> 102 ;
103 [label="X[40] <= 0.5\nentropy = 0.9911\nsamples = 9\nvalue = [4, 5]"] ;
101 -> 103 ;
104 [label="X[50] <= 0.5\nentropy = 0.9852\nsamples = 7\nvalue = [4, 3]"] ;
103 -> 104 ;
105 [label="entropy = 0.0\nsamples = 2\nvalue = [2, 0]"] ;
104 -> 105 ;
106 [label="X[2] <= 14.5\nentropy = 0.971\nsamples = 5\nvalue = [2, 3]"] ;
104 -> 106 ;
107 [label="entropy = 0.0\nsamples = 2\nvalue = [0, 2]"] ;
106 -> 107 ;
108 [label="X[18] <= 0.5\nentropy = 0.9183\nsamples = 3\nvalue = [2, 1]"] ;
106 -> 108 ;
109 [label="entropy = 0.0\nsamples = 2\nvalue = [2, 0]"] ;
108 -> 109 ;
110 [label="entropy = 0.0\nsamples = 1\nvalue = [0, 1]"] ;
108 -> 110 ;
111 [label="entropy = 0.0\nsamples = 2\nvalue = [0, 2]"] ;
103 -> 111 ;
112 [label="entropy = 0.0\nsamples = 4\nvalue = [4, 0]"] ;
100 -> 112 ;
113 [label="entropy = 0.0\nsamples = 2\nvalue = [0, 2]"] ;
87 -> 113 ;
114 [label="X[3] <= 79.5\nentropy = 0.135\nsamples = 53\nvalue = [52, 1]"] ;
86 -> 114 ;
115 [label="X[27] <= 0.5\nentropy = 0.8113\nsamples = 4\nvalue = [3, 1]"] ;
114 -> 115 ;
116 [label="entropy = 0.0\nsamples = 3\nvalue = [3, 0]"] ;
115 -> 116 ;
117 [label="entropy = 0.0\nsamples = 1\nvalue = [0, 1]"] ;
115 -> 117 ;
118 [label="entropy = 0.0\nsamples = 49\nvalue = [49, 0]"] ;
114 -> 118 ;
119 [label="X[0] <= 21.5\nentropy = 0.7496\nsamples = 56\nvalue = [44, 12]"] ;
85 -> 119 ;
120 [label="entropy = 0.0\nsamples = 10\nvalue = [10, 0]"] ;
119 -> 120 ;
121 [label="X[41] <= 0.5\nentropy = 0.8281\nsamples = 46\nvalue = [34, 12]"] ;
119 -> 121 ;
122 [label="X[3] <= 120.5\nentropy = 0.7401\nsamples = 43\nvalue = [34, 9]"] ;
121 -> 122 ;
123 [label="X[0] <= 24.5\nentropy = 0.9968\nsamples = 15\nvalue = [8, 7]"] ;
122 -> 123 ;
124 [label="entropy = 0.0\nsamples = 3\nvalue = [0, 3]"] ;
123 -> 124 ;
125 [label="X[1] <= 310.0\nentropy = 0.9183\nsamples = 12\nvalue = [8, 4]"] ;
123 -> 125 ;
126 [label="entropy = 0.0\nsamples = 3\nvalue = [3, 0]"] ;
125 -> 126 ;
127 [label="X[1] <= 511.0\nentropy = 0.9911\nsamples = 9\nvalue = [5, 4]"] ;
125 -> 127 ;
128 [label="entropy = 0.0\nsamples = 2\nvalue = [0, 2]"] ;
127 -> 128 ;
129 [label="X[46] <= 0.5\nentropy = 0.8631\nsamples = 7\nvalue = [5, 2]"] ;
127 -> 129 ;
130 [label="X[1] <= 6524.5\nentropy = 0.65\nsamples = 6\nvalue = [5, 1]"] ;
129 -> 130 ;
131 [label="entropy = 0.0\nsamples = 5\nvalue = [5, 0]"] ;
130 -> 131 ;
132 [label="entropy = 0.0\nsamples = 1\nvalue = [0, 1]"] ;
130 -> 132 ;
133 [label="entropy = 0.0\nsamples = 1\nvalue = [0, 1]"] ;
129 -> 133 ;
134 [label="X[13] <= 0.5\nentropy = 0.3712\nsamples = 28\nvalue = [26, 2]"] ;
122 -> 134 ;
135 [label="entropy = 0.0\nsamples = 16\nvalue = [16, 0]"] ;
134 -> 135 ;
136 [label="X[2] <= 5.5\nentropy = 0.65\nsamples = 12\nvalue = [10, 2]"] ;
134 -> 136 ;
137 [label="entropy = 0.0\nsamples = 1\nvalue = [0, 1]"] ;
136 -> 137 ;
138 [label="X[19] <= 0.5\nentropy = 0.4395\nsamples = 11\nvalue = [10, 1]"] ;
136 -> 138 ;
139 [label="entropy = 0.0\nsamples = 9\nvalue = [9, 0]"] ;
138 -> 139 ;
140 [label="X[0] <= 27.0\nentropy = 1.0\nsamples = 2\nvalue = [1, 1]"] ;
138 -> 140 ;
141 [label="entropy = 0.0\nsamples = 1\nvalue = [0, 1]"] ;
140 -> 141 ;
142 [label="entropy = 0.0\nsamples = 1\nvalue = [1, 0]"] ;
140 -> 142 ;
143 [label="entropy = 0.0\nsamples = 3\nvalue = [0, 3]"] ;
121 -> 143 ;
144 [label="X[2] <= 28.5\nentropy = 0.888\nsamples = 36\nvalue = [25, 11]"] ;
82 -> 144 ;
145 [label="X[3] <= 96.0\nentropy = 0.9481\nsamples = 30\nvalue = [19, 11]"] ;
144 -> 145 ;
146 [label="entropy = 0.0\nsamples = 5\nvalue = [5, 0]"] ;
145 -> 146 ;
147 [label="X[0] <= 20.5\nentropy = 0.9896\nsamples = 25\nvalue = [14, 11]"] ;
145 -> 147 ;
148 [label="entropy = 0.0\nsamples = 3\nvalue = [3, 0]"] ;
147 -> 148 ;
149 [label="X[4] <= 5.5\nentropy = 1.0\nsamples = 22\nvalue = [11, 11]"] ;
147 -> 149 ;
150 [label="X[13] <= 0.5\nentropy = 0.9819\nsamples = 19\nvalue = [8, 11]"] ;
149 -> 150 ;
151 [label="X[3] <= 123.0\nentropy = 0.5917\nsamples = 7\nvalue = [1, 6]"] ;
150 -> 151 ;
152 [label="entropy = 0.0\nsamples = 6\nvalue = [0, 6]"] ;
151 -> 152 ;
153 [label="entropy = 0.0\nsamples = 1\nvalue = [1, 0]"] ;
151 -> 153 ;
154 [label="X[0] <= 26.5\nentropy = 0.9799\nsamples = 12\nvalue = [7, 5]"] ;
150 -> 154 ;
155 [label="X[2] <= 22.5\nentropy = 0.9544\nsamples = 8\nvalue = [3, 5]"] ;
154 -> 155 ;
156 [label="X[4] <= 3.0\nentropy = 0.65\nsamples = 6\nvalue = [1, 5]"] ;
155 -> 156 ;
157 [label="entropy = 0.0\nsamples = 5\nvalue = [0, 5]"] ;
156 -> 157 ;
158 [label="entropy = 0.0\nsamples = 1\nvalue = [1, 0]"] ;
156 -> 158 ;
159 [label="entropy = 0.0\nsamples = 2\nvalue = [2, 0]"] ;
155 -> 159 ;
160 [label="entropy = 0.0\nsamples = 4\nvalue = [4, 0]"] ;
154 -> 160 ;
161 [label="entropy = 0.0\nsamples = 3\nvalue = [3, 0]"] ;
149 -> 161 ;
162 [label="entropy = 0.0\nsamples = 6\nvalue = [6, 0]"] ;
144 -> 162 ;
163 [label="X[45] <= 0.5\nentropy = 0.1381\nsamples = 5408\nvalue = [5303, 105]"] ;
73 -> 163 ;
164 [label="X[38] <= 0.5\nentropy = 0.1218\nsamples = 5308\nvalue = [5220, 88]"] ;
163 -> 164 ;
165 [label="X[41] <= 0.5\nentropy = 0.0927\nsamples = 4902\nvalue = [4844, 58]"] ;
164 -> 165 ;
166 [label="X[35] <= 0.5\nentropy = 0.0754\nsamples = 4789\nvalue = [4745, 44]"] ;
165 -> 166 ;
167 [label="X[46] <= 0.5\nentropy = 0.047\nsamples = 4413\nvalue = [4390, 23]"] ;
166 -> 167 ;
168 [label="X[1] <= 45.5\nentropy = 0.0369\nsamples = 4353\nvalue = [4336, 17]"] ;
167 -> 168 ;
169 [label="entropy = 0.0\nsamples = 1168\nvalue = [1168, 0]"] ;
168 -> 169 ;
170 [label="X[2] <= 3.5\nentropy = 0.048\nsamples = 3185\nvalue = [3168, 17]"] ;
168 -> 170 ;
171 [label="X[2] <= 2.5\nentropy = 0.5436\nsamples = 16\nvalue = [14, 2]"] ;
170 -> 171 ;
172 [label="entropy = 0.0\nsamples = 12\nvalue = [12, 0]"] ;
171 -> 172 ;
173 [label="X[27] <= 0.5\nentropy = 1.0\nsamples = 4\nvalue = [2, 2]"] ;
171 -> 173 ;
174 [label="entropy = 0.0\nsamples = 2\nvalue = [0, 2]"] ;
173 -> 174 ;
175 [label="entropy = 0.0\nsamples = 2\nvalue = [2, 0]"] ;
173 -> 175 ;
176 [label="X[6] <= 1.5\nentropy = 0.0434\nsamples = 3169\nvalue = [3154, 15]"] ;
170 -> 176 ;
177 [label="X[37] <= 0.5\nentropy = 0.0311\nsamples = 2821\nvalue = [2812, 9]"] ;
176 -> 177 ;
178 [label="X[1] <= 197.5\nentropy = 0.0282\nsamples = 2808\nvalue = [2800, 8]"] ;
177 -> 178 ;
179 [label="X[1] <= 195.5\nentropy = 0.068\nsamples = 493\nvalue = [489, 4]"] ;
178 -> 179 ;
180 [label="X[0] <= 62.0\nentropy = 0.0385\nsamples = 487\nvalue = [485, 2]"] ;
179 -> 180 ;
181 [label="X[2] <= 8.5\nentropy = 0.0214\nsamples = 484\nvalue = [483, 1]"] ;
180 -> 181 ;
182 [label="X[1] <= 150.5\nentropy = 0.1056\nsamples = 72\nvalue = [71, 1]"] ;
181 -> 182 ;
183 [label="entropy = 0.0\nsamples = 54\nvalue = [54, 0]"] ;
182 -> 183 ;
184 [label="X[1] <= 151.5\nentropy = 0.3095\nsamples = 18\nvalue = [17, 1]"] ;
182 -> 184 ;
185 [label="entropy = 0.0\nsamples = 1\nvalue = [0, 1]"] ;
184 -> 185 ;
186 [label="entropy = 0.0\nsamples = 17\nvalue = [17, 0]"] ;
184 -> 186 ;
187 [label="entropy = 0.0\nsamples = 412\nvalue = [412, 0]"] ;
181 -> 187 ;
188 [label="X[4] <= 2.5\nentropy = 0.9183\nsamples = 3\nvalue = [2, 1]"] ;
180 -> 188 ;
189 [label="entropy = 0.0\nsamples = 2\nvalue = [2, 0]"] ;
188 -> 189 ;
190 [label="entropy = 0.0\nsamples = 1\nvalue = [0, 1]"] ;
188 -> 190 ;
191 [label="X[3] <= 88.0\nentropy = 0.9183\nsamples = 6\nvalue = [4, 2]"] ;
179 -> 191 ;
192 [label="entropy = 0.0\nsamples = 2\nvalue = [0, 2]"] ;
191 -> 192 ;
193 [label="entropy = 0.0\nsamples = 4\nvalue = [4, 0]"] ;
191 -> 193 ;
194 [label="X[0] <= 30.5\nentropy = 0.0183\nsamples = 2315\nvalue = [2311, 4]"] ;
178 -> 194 ;
195 [label="X[28] <= 0.5\nentropy = 0.1011\nsamples = 152\nvalue = [150, 2]"] ;
194 -> 195 ;
196 [label="X[3] <= 123.5\nentropy = 0.0581\nsamples = 149\nvalue = [148, 1]"] ;
195 -> 196 ;
197 [label="entropy = 0.0\nsamples = 132\nvalue = [132, 0]"] ;
196 -> 197 ;
198 [label="X[27] <= 0.5\nentropy = 0.3228\nsamples = 17\nvalue = [16, 1]"] ;
196 -> 198 ;
199 [label="entropy = 0.0\nsamples = 13\nvalue = [13, 0]"] ;
198 -> 199 ;
200 [label="X[3] <= 124.5\nentropy = 0.8113\nsamples = 4\nvalue = [3, 1]"] ;
198 -> 200 ;
201 [label="X[4] <= 1.5\nentropy = 1.0\nsamples = 2\nvalue = [1, 1]"] ;
200 -> 201 ;
202 [label="entropy = 0.0\nsamples = 1\nvalue = [0, 1]"] ;
201 -> 202 ;
203 [label="entropy = 0.0\nsamples = 1\nvalue = [1, 0]"] ;
201 -> 203 ;
204 [label="entropy = 0.0\nsamples = 2\nvalue = [2, 0]"] ;
200 -> 204 ;
205 [label="X[5] <= 139.0\nentropy = 0.9183\nsamples = 3\nvalue = [2, 1]"] ;
195 -> 205 ;
206 [label="entropy = 0.0\nsamples = 2\nvalue = [2, 0]"] ;
205 -> 206 ;
207 [label="entropy = 0.0\nsamples = 1\nvalue = [0, 1]"] ;
205 -> 207 ;
208 [label="X[0] <= 44.5\nentropy = 0.0107\nsamples = 2163\nvalue = [2161, 2]"] ;
194 -> 208 ;
209 [label="entropy = 0.0\nsamples = 1141\nvalue = [1141, 0]"] ;
208 -> 209 ;
210 [label="X[1] <= 985.5\nentropy = 0.0204\nsamples = 1022\nvalue = [1020, 2]"] ;
208 -> 210 ;
211 [label="entropy = 0.0\nsamples = 477\nvalue = [477, 0]"] ;
210 -> 211 ;
212 [label="X[1] <= 989.5\nentropy = 0.035\nsamples = 545\nvalue = [543, 2]"] ;
210 -> 212 ;
213 [label="X[32] <= 0.5\nentropy = 1.0\nsamples = 2\nvalue = [1, 1]"] ;
212 -> 213 ;
214 [label="entropy = 0.0\nsamples = 1\nvalue = [1, 0]"] ;
213 -> 214 ;
215 [label="entropy = 0.0\nsamples = 1\nvalue = [0, 1]"] ;
213 -> 215 ;
216 [label="X[0] <= 45.5\nentropy = 0.0194\nsamples = 543\nvalue = [542, 1]"] ;
212 -> 216 ;
217 [label="X[22] <= 0.5\nentropy = 0.1594\nsamples = 43\nvalue = [42, 1]"] ;
216 -> 217 ;
218 [label="entropy = 0.0\nsamples = 32\nvalue = [32, 0]"] ;
217 -> 218 ;
219 [label="X[4] <= 3.5\nentropy = 0.4395\nsamples = 11\nvalue = [10, 1]"] ;
217 -> 219 ;
220 [label="entropy = 0.0\nsamples = 7\nvalue = [7, 0]"] ;
219 -> 220 ;
221 [label="X[3] <= 93.5\nentropy = 0.8113\nsamples = 4\nvalue = [3, 1]"] ;
219 -> 221 ;
222 [label="entropy = 0.0\nsamples = 3\nvalue = [3, 0]"] ;
221 -> 222 ;
223 [label="entropy = 0.0\nsamples = 1\nvalue = [0, 1]"] ;
221 -> 223 ;
224 [label="entropy = 0.0\nsamples = 500\nvalue = [500, 0]"] ;
216 -> 224 ;
225 [label="X[32] <= 0.5\nentropy = 0.3912\nsamples = 13\nvalue = [12, 1]"] ;
177 -> 225 ;
226 [label="entropy = 0.0\nsamples = 12\nvalue = [12, 0]"] ;
225 -> 226 ;
227 [label="entropy = 0.0\nsamples = 1\nvalue = [0, 1]"] ;
225 -> 227 ;
228 [label="X[5] <= 99.5\nentropy = 0.1257\nsamples = 348\nvalue = [342, 6]"] ;
176 -> 228 ;
229 [label="X[3] <= 96.5\nentropy = 0.4395\nsamples = 44\nvalue = [40, 4]"] ;
228 -> 229 ;
230 [label="entropy = 0.0\nsamples = 20\nvalue = [20, 0]"] ;
229 -> 230 ;
231 [label="X[1] <= 905.5\nentropy = 0.65\nsamples = 24\nvalue = [20, 4]"] ;
229 -> 231 ;
232 [label="entropy = 0.0\nsamples = 12\nvalue = [12, 0]"] ;
231 -> 232 ;
233 [label="X[0] <= 37.5\nentropy = 0.9183\nsamples = 12\nvalue = [8, 4]"] ;
231 -> 233 ;
234 [label="entropy = 0.0\nsamples = 2\nvalue = [0, 2]"] ;
233 -> 234 ;
235 [label="X[3] <= 105.0\nentropy = 0.7219\nsamples = 10\nvalue = [8, 2]"] ;
233 -> 235 ;
236 [label="X[0] <= 52.5\nentropy = 1.0\nsamples = 4\nvalue = [2, 2]"] ;
235 -> 236 ;
237 [label="entropy = 0.0\nsamples = 2\nvalue = [2, 0]"] ;
236 -> 237 ;
238 [label="entropy = 0.0\nsamples = 2\nvalue = [0, 2]"] ;
236 -> 238 ;
239 [label="entropy = 0.0\nsamples = 6\nvalue = [6, 0]"] ;
235 -> 239 ;
240 [label="X[5] <= 384.0\nentropy = 0.0571\nsamples = 304\nvalue = [302, 2]"] ;
228 -> 240 ;
241 [label="X[0] <= 31.5\nentropy = 0.0321\nsamples = 301\nvalue = [300, 1]"] ;
240 -> 241 ;
242 [label="X[3] <= 92.0\nentropy = 0.2056\nsamples = 31\nvalue = [30, 1]"] ;
241 -> 242 ;
243 [label="X[4] <= 1.5\nentropy = 0.8113\nsamples = 4\nvalue = [3, 1]"] ;
242 -> 243 ;
244 [label="entropy = 0.0\nsamples = 1\nvalue = [0, 1]"] ;
243 -> 244 ;
245 [label="entropy = 0.0\nsamples = 3\nvalue = [3, 0]"] ;
243 -> 245 ;
246 [label="entropy = 0.0\nsamples = 27\nvalue = [27, 0]"] ;
242 -> 246 ;
247 [label="entropy = 0.0\nsamples = 270\nvalue = [270, 0]"] ;
241 -> 247 ;
248 [label="X[30] <= 0.5\nentropy = 0.9183\nsamples = 3\nvalue = [2, 1]"] ;
240 -> 248 ;
249 [label="entropy = 0.0\nsamples = 1\nvalue = [0, 1]"] ;
248 -> 249 ;
250 [label="entropy = 0.0\nsamples = 2\nvalue = [2, 0]"] ;
248 -> 250 ;
251 [label="X[4] <= 1.5\nentropy = 0.469\nsamples = 60\nvalue = [54, 6]"] ;
167 -> 251 ;
252 [label="entropy = 0.0\nsamples = 24\nvalue = [24, 0]"] ;
251 -> 252 ;
253 [label="X[2] <= 9.5\nentropy = 0.65\nsamples = 36\nvalue = [30, 6]"] ;
251 -> 253 ;
254 [label="X[25] <= 0.5\nentropy = 0.2668\nsamples = 22\nvalue = [21, 1]"] ;
253 -> 254 ;
255 [label="entropy = 0.0\nsamples = 20\nvalue = [20, 0]"] ;
254 -> 255 ;
256 [label="X[1] <= 574.0\nentropy = 1.0\nsamples = 2\nvalue = [1, 1]"] ;
254 -> 256 ;
257 [label="entropy = 0.0\nsamples = 1\nvalue = [0, 1]"] ;
256 -> 257 ;
258 [label="entropy = 0.0\nsamples = 1\nvalue = [1, 0]"] ;
256 -> 258 ;
259 [label="X[2] <= 15.5\nentropy = 0.9403\nsamples = 14\nvalue = [9, 5]"] ;
253 -> 259 ;
260 [label="X[12] <= 0.5\nentropy = 1.0\nsamples = 10\nvalue = [5, 5]"] ;
259 -> 260 ;
261 [label="X[24] <= 0.5\nentropy = 0.9544\nsamples = 8\nvalue = [3, 5]"] ;
260 -> 261 ;
262 [label="X[3] <= 127.5\nentropy = 0.65\nsamples = 6\nvalue = [1, 5]"] ;
261 -> 262 ;
263 [label="entropy = 0.0\nsamples = 5\nvalue = [0, 5]"] ;
262 -> 263 ;
264 [label="entropy = 0.0\nsamples = 1\nvalue = [1, 0]"] ;
262 -> 264 ;
265 [label="entropy = 0.0\nsamples = 2\nvalue = [2, 0]"] ;
261 -> 265 ;
266 [label="entropy = 0.0\nsamples = 2\nvalue = [2, 0]"] ;
260 -> 266 ;
267 [label="entropy = 0.0\nsamples = 4\nvalue = [4, 0]"] ;
259 -> 267 ;
268 [label="X[17] <= 0.5\nentropy = 0.3108\nsamples = 376\nvalue = [355, 21]"] ;
166 -> 268 ;
269 [label="X[2] <= 23.5\nentropy = 0.5266\nsamples = 126\nvalue = [111, 15]"] ;
268 -> 269 ;
270 [label="X[0] <= 35.5\nentropy = 0.6632\nsamples = 87\nvalue = [72, 15]"] ;
269 -> 270 ;
271 [label="X[0] <= 34.5\nentropy = 0.9183\nsamples = 30\nvalue = [20, 10]"] ;
270 -> 271 ;
272 [label="X[3] <= 96.5\nentropy = 0.8631\nsamples = 28\nvalue = [20, 8]"] ;
271 -> 272 ;
273 [label="entropy = 0.0\nsamples = 12\nvalue = [12, 0]"] ;
272 -> 273 ;
274 [label="X[34] <= 0.5\nentropy = 1.0\nsamples = 16\nvalue = [8, 8]"] ;
272 -> 274 ;
275 [label="X[4] <= 1.5\nentropy = 0.8113\nsamples = 8\nvalue = [2, 6]"] ;
274 -> 275 ;
276 [label="entropy = 0.0\nsamples = 5\nvalue = [0, 5]"] ;
275 -> 276 ;
277 [label="X[1] <= 294.5\nentropy = 0.9183\nsamples = 3\nvalue = [2, 1]"] ;
275 -> 277 ;
278 [label="entropy = 0.0\nsamples = 1\nvalue = [1, 0]"] ;
277 -> 278 ;
279 [label="X[13] <= 0.5\nentropy = 1.0\nsamples = 2\nvalue = [1, 1]"] ;
277 -> 279 ;
280 [label="entropy = 0.0\nsamples = 1\nvalue = [0, 1]"] ;
279 -> 280 ;
281 [label="entropy = 0.0\nsamples = 1\nvalue = [1, 0]"] ;
279 -> 281 ;
282 [label="X[1] <= 2268.0\nentropy = 0.8113\nsamples = 8\nvalue = [6, 2]"] ;
274 -> 282 ;
283 [label="X[0] <= 29.5\nentropy = 0.5917\nsamples = 7\nvalue = [6, 1]"] ;
282 -> 283 ;
284 [label="X[3] <= 113.0\nentropy = 1.0\nsamples = 2\nvalue = [1, 1]"] ;
283 -> 284 ;
285 [label="entropy = 0.0\nsamples = 1\nvalue = [0, 1]"] ;
284 -> 285 ;
286 [label="entropy = 0.0\nsamples = 1\nvalue = [1, 0]"] ;
284 -> 286 ;
287 [label="entropy = 0.0\nsamples = 5\nvalue = [5, 0]"] ;
283 -> 287 ;
288 [label="entropy = 0.0\nsamples = 1\nvalue = [0, 1]"] ;
282 -> 288 ;
289 [label="entropy = 0.0\nsamples = 2\nvalue = [0, 2]"] ;
271 -> 289 ;
290 [label="X[4] <= 1.5\nentropy = 0.4288\nsamples = 57\nvalue = [52, 5]"] ;
270 -> 290 ;
291 [label="X[32] <= 0.5\nentropy = 0.6769\nsamples = 28\nvalue = [23, 5]"] ;
290 -> 291 ;
292 [label="X[2] <= 20.5\nentropy = 0.4262\nsamples = 23\nvalue = [21, 2]"] ;
291 -> 292 ;
293 [label="entropy = 0.0\nsamples = 19\nvalue = [19, 0]"] ;
292 -> 293 ;
294 [label="X[13] <= 0.5\nentropy = 1.0\nsamples = 4\nvalue = [2, 2]"] ;
292 -> 294 ;
295 [label="X[22] <= 0.5\nentropy = 0.9183\nsamples = 3\nvalue = [2, 1]"] ;
294 -> 295 ;
296 [label="entropy = 0.0\nsamples = 2\nvalue = [2, 0]"] ;
295 -> 296 ;
297 [label="entropy = 0.0\nsamples = 1\nvalue = [0, 1]"] ;
295 -> 297 ;
298 [label="entropy = 0.0\nsamples = 1\nvalue = [0, 1]"] ;
294 -> 298 ;
299 [label="X[1] <= 642.0\nentropy = 0.971\nsamples = 5\nvalue = [2, 3]"] ;
291 -> 299 ;
300 [label="entropy = 0.0\nsamples = 3\nvalue = [0, 3]"] ;
299 -> 300 ;
301 [label="entropy = 0.0\nsamples = 2\nvalue = [2, 0]"] ;
299 -> 301 ;
302 [label="entropy = 0.0\nsamples = 29\nvalue = [29, 0]"] ;
290 -> 302 ;
303 [label="entropy = 0.0\nsamples = 39\nvalue = [39, 0]"] ;
269 -> 303 ;
304 [label="X[1] <= 673.0\nentropy = 0.1633\nsamples = 250\nvalue = [244, 6]"] ;
268 -> 304 ;
305 [label="entropy = 0.0\nsamples = 136\nvalue = [136, 0]"] ;
304 -> 305 ;
306 [label="X[0] <= 32.5\nentropy = 0.2975\nsamples = 114\nvalue = [108, 6]"] ;
304 -> 306 ;
307 [label="X[3] <= 99.5\nentropy = 0.8366\nsamples = 15\nvalue = [11, 4]"] ;
306 -> 307 ;
308 [label="entropy = 0.0\nsamples = 7\nvalue = [7, 0]"] ;
307 -> 308 ;
309 [label="X[19] <= 0.5\nentropy = 1.0\nsamples = 8\nvalue = [4, 4]"] ;
307 -> 309 ;
310 [label="X[2] <= 18.5\nentropy = 0.9183\nsamples = 6\nvalue = [2, 4]"] ;
309 -> 310 ;
311 [label="X[5] <= 159.5\nentropy = 0.9183\nsamples = 3\nvalue = [2, 1]"] ;
310 -> 311 ;
312 [label="entropy = 0.0\nsamples = 2\nvalue = [2, 0]"] ;
311 -> 312 ;
313 [label="entropy = 0.0\nsamples = 1\nvalue = [0, 1]"] ;
311 -> 313 ;
314 [label="entropy = 0.0\nsamples = 3\nvalue = [0, 3]"] ;
310 -> 314 ;
315 [label="entropy = 0.0\nsamples = 2\nvalue = [2, 0]"] ;
309 -> 315 ;
316 [label="X[2] <= 26.5\nentropy = 0.1426\nsamples = 99\nvalue = [97, 2]"] ;
306 -> 316 ;
317 [label="entropy = 0.0\nsamples = 91\nvalue = [91, 0]"] ;
316 -> 317 ;
318 [label="X[2] <= 27.5\nentropy = 0.8113\nsamples = 8\nvalue = [6, 2]"] ;
316 -> 318 ;
319 [label="entropy = 0.0\nsamples = 2\nvalue = [0, 2]"] ;
318 -> 319 ;
320 [label="entropy = 0.0\nsamples = 6\nvalue = [6, 0]"] ;
318 -> 320 ;
321 [label="X[5] <= 337.5\nentropy = 0.5405\nsamples = 113\nvalue = [99, 14]"] ;
165 -> 321 ;
322 [label="X[8] <= 0.5\nentropy = 0.4972\nsamples = 110\nvalue = [98, 12]"] ;
321 -> 322 ;
323 [label="X[48] <= 0.5\nentropy = 0.5399\nsamples = 97\nvalue = [85, 12]"] ;
322 -> 323 ;
324 [label="X[3] <= 83.5\nentropy = 0.496\nsamples = 92\nvalue = [82, 10]"] ;
323 -> 324 ;
325 [label="entropy = 0.0\nsamples = 9\nvalue = [9, 0]"] ;
324 -> 325 ;
326 [label="X[3] <= 85.0\nentropy = 0.5307\nsamples = 83\nvalue = [73, 10]"] ;
324 -> 326 ;
327 [label="X[24] <= 0.5\nentropy = 1.0\nsamples = 4\nvalue = [2, 2]"] ;
326 -> 327 ;
328 [label="entropy = 0.0\nsamples = 2\nvalue = [0, 2]"] ;
327 -> 328 ;
329 [label="entropy = 0.0\nsamples = 2\nvalue = [2, 0]"] ;
327 -> 329 ;
330 [label="X[3] <= 93.5\nentropy = 0.473\nsamples = 79\nvalue = [71, 8]"] ;
326 -> 330 ;
331 [label="entropy = 0.0\nsamples = 14\nvalue = [14, 0]"] ;
330 -> 331 ;
332 [label="X[0] <= 30.5\nentropy = 0.5381\nsamples = 65\nvalue = [57, 8]"] ;
330 -> 332 ;
333 [label="entropy = 0.0\nsamples = 8\nvalue = [8, 0]"] ;
332 -> 333 ;
334 [label="X[0] <= 34.5\nentropy = 0.5852\nsamples = 57\nvalue = [49, 8]"] ;
332 -> 334 ;
335 [label="X[1] <= 767.0\nentropy = 0.8113\nsamples = 16\nvalue = [12, 4]"] ;
334 -> 335 ;
336 [label="X[1] <= 11.0\nentropy = 0.9457\nsamples = 11\nvalue = [7, 4]"] ;
335 -> 336 ;
337 [label="entropy = 0.0\nsamples = 1\nvalue = [0, 1]"] ;
336 -> 337 ;
338 [label="X[1] <= 704.0\nentropy = 0.8813\nsamples = 10\nvalue = [7, 3]"] ;
336 -> 338 ;
339 [label="X[27] <= 0.5\nentropy = 0.7642\nsamples = 9\nvalue = [7, 2]"] ;
338 -> 339 ;
340 [label="entropy = 0.0\nsamples = 5\nvalue = [5, 0]"] ;
339 -> 340 ;
341 [label="X[6] <= 1.0\nentropy = 1.0\nsamples = 4\nvalue = [2, 2]"] ;
339 -> 341 ;
342 [label="X[2] <= 15.0\nentropy = 0.9183\nsamples = 3\nvalue = [1, 2]"] ;
341 -> 342 ;
343 [label="entropy = 0.0\nsamples = 2\nvalue = [0, 2]"] ;
342 -> 343 ;
344 [label="entropy = 0.0\nsamples = 1\nvalue = [1, 0]"] ;
342 -> 344 ;
345 [label="entropy = 0.0\nsamples = 1\nvalue = [1, 0]"] ;
341 -> 345 ;
346 [label="entropy = 0.0\nsamples = 1\nvalue = [0, 1]"] ;
338 -> 346 ;
347 [label="entropy = 0.0\nsamples = 5\nvalue = [5, 0]"] ;
335 -> 347 ;
348 [label="X[18] <= 0.5\nentropy = 0.4612\nsamples = 41\nvalue = [37, 4]"] ;
334 -> 348 ;
349 [label="X[1] <= 2855.0\nentropy = 0.316\nsamples = 35\nvalue = [33, 2]"] ;
348 -> 349 ;
350 [label="entropy = 0.0\nsamples = 30\nvalue = [30, 0]"] ;
349 -> 350 ;
351 [label="X[1] <= 3611.5\nentropy = 0.971\nsamples = 5\nvalue = [3, 2]"] ;
349 -> 351 ;
352 [label="entropy = 0.0\nsamples = 2\nvalue = [0, 2]"] ;
351 -> 352 ;
353 [label="entropy = 0.0\nsamples = 3\nvalue = [3, 0]"] ;
351 -> 353 ;
354 [label="X[33] <= 0.5\nentropy = 0.9183\nsamples = 6\nvalue = [4, 2]"] ;
348 -> 354 ;
355 [label="entropy = 0.0\nsamples = 4\nvalue = [4, 0]"] ;
354 -> 355 ;
356 [label="entropy = 0.0\nsamples = 2\nvalue = [0, 2]"] ;
354 -> 356 ;
357 [label="X[22] <= 0.5\nentropy = 0.971\nsamples = 5\nvalue = [3, 2]"] ;
323 -> 357 ;
358 [label="entropy = 0.0\nsamples = 3\nvalue = [3, 0]"] ;
357 -> 358 ;
359 [label="entropy = 0.0\nsamples = 2\nvalue = [0, 2]"] ;
357 -> 359 ;
360 [label="entropy = 0.0\nsamples = 13\nvalue = [13, 0]"] ;
322 -> 360 ;
361 [label="X[3] <= 101.0\nentropy = 0.9183\nsamples = 3\nvalue = [1, 2]"] ;
321 -> 361 ;
362 [label="entropy = 0.0\nsamples = 2\nvalue = [0, 2]"] ;
361 -> 362 ;
363 [label="entropy = 0.0\nsamples = 1\nvalue = [1, 0]"] ;
361 -> 363 ;
364 [label="X[2] <= 9.5\nentropy = 0.3803\nsamples = 406\nvalue = [376, 30]"] ;
164 -> 364 ;
365 [label="X[3] <= 122.5\nentropy = 0.1575\nsamples = 349\nvalue = [341, 8]"] ;
364 -> 365 ;
366 [label="X[3] <= 80.5\nentropy = 0.0579\nsamples = 299\nvalue = [297, 2]"] ;
365 -> 366 ;
367 [label="X[1] <= 1353.0\nentropy = 0.4395\nsamples = 22\nvalue = [20, 2]"] ;
366 -> 367 ;
368 [label="entropy = 0.0\nsamples = 16\nvalue = [16, 0]"] ;
367 -> 368 ;
369 [label="X[0] <= 42.0\nentropy = 0.9183\nsamples = 6\nvalue = [4, 2]"] ;
367 -> 369 ;
370 [label="X[34] <= 0.5\nentropy = 0.9183\nsamples = 3\nvalue = [1, 2]"] ;
369 -> 370 ;
371 [label="entropy = 0.0\nsamples = 2\nvalue = [0, 2]"] ;
370 -> 371 ;
372 [label="entropy = 0.0\nsamples = 1\nvalue = [1, 0]"] ;
370 -> 372 ;
373 [label="entropy = 0.0\nsamples = 3\nvalue = [3, 0]"] ;
369 -> 373 ;
374 [label="entropy = 0.0\nsamples = 277\nvalue = [277, 0]"] ;
366 -> 374 ;
375 [label="X[2] <= 7.5\nentropy = 0.5294\nsamples = 50\nvalue = [44, 6]"] ;
365 -> 375 ;
376 [label="X[1] <= 726.5\nentropy = 0.3425\nsamples = 47\nvalue = [44, 3]"] ;
375 -> 376 ;
377 [label="entropy = 0.0\nsamples = 31\nvalue = [31, 0]"] ;
376 -> 377 ;
378 [label="X[1] <= 882.0\nentropy = 0.6962\nsamples = 16\nvalue = [13, 3]"] ;
376 -> 378 ;
379 [label="X[3] <= 127.0\nentropy = 0.9183\nsamples = 3\nvalue = [1, 2]"] ;
378 -> 379 ;
380 [label="entropy = 0.0\nsamples = 1\nvalue = [1, 0]"] ;
379 -> 380 ;
381 [label="entropy = 0.0\nsamples = 2\nvalue = [0, 2]"] ;
379 -> 381 ;
382 [label="X[0] <= 31.0\nentropy = 0.3912\nsamples = 13\nvalue = [12, 1]"] ;
378 -> 382 ;
383 [label="entropy = 0.0\nsamples = 1\nvalue = [0, 1]"] ;
382 -> 383 ;
384 [label="entropy = 0.0\nsamples = 12\nvalue = [12, 0]"] ;
382 -> 384 ;
385 [label="entropy = 0.0\nsamples = 3\nvalue = [0, 3]"] ;
375 -> 385 ;
386 [label="X[6] <= 8.5\nentropy = 0.9621\nsamples = 57\nvalue = [35, 22]"] ;
364 -> 386 ;
387 [label="X[47] <= 0.5\nentropy = 0.9357\nsamples = 54\nvalue = [35, 19]"] ;
386 -> 387 ;
388 [label="X[14] <= 0.5\nentropy = 0.9953\nsamples = 37\nvalue = [20, 17]"] ;
387 -> 388 ;
389 [label="X[0] <= 42.5\nentropy = 0.9656\nsamples = 23\nvalue = [9, 14]"] ;
388 -> 389 ;
390 [label="entropy = 0.0\nsamples = 6\nvalue = [0, 6]"] ;
389 -> 390 ;
391 [label="X[2] <= 15.5\nentropy = 0.9975\nsamples = 17\nvalue = [9, 8]"] ;
389 -> 391 ;
392 [label="X[32] <= 0.5\nentropy = 0.5917\nsamples = 7\nvalue = [6, 1]"] ;
391 -> 392 ;
393 [label="entropy = 0.0\nsamples = 5\nvalue = [5, 0]"] ;
392 -> 393 ;
394 [label="X[0] <= 54.5\nentropy = 1.0\nsamples = 2\nvalue = [1, 1]"] ;
392 -> 394 ;
395 [label="entropy = 0.0\nsamples = 1\nvalue = [0, 1]"] ;
394 -> 395 ;
396 [label="entropy = 0.0\nsamples = 1\nvalue = [1, 0]"] ;
394 -> 396 ;
397 [label="X[4] <= 1.5\nentropy = 0.8813\nsamples = 10\nvalue = [3, 7]"] ;
391 -> 397 ;
398 [label="entropy = 0.0\nsamples = 5\nvalue = [0, 5]"] ;
397 -> 398 ;
399 [label="X[8] <= 0.5\nentropy = 0.971\nsamples = 5\nvalue = [3, 2]"] ;
397 -> 399 ;
400 [label="X[1] <= 536.5\nentropy = 0.9183\nsamples = 3\nvalue = [1, 2]"] ;
399 -> 400 ;
401 [label="entropy = 0.0\nsamples = 1\nvalue = [1, 0]"] ;
400 -> 401 ;
402 [label="entropy = 0.0\nsamples = 2\nvalue = [0, 2]"] ;
400 -> 402 ;
403 [label="entropy = 0.0\nsamples = 2\nvalue = [2, 0]"] ;
399 -> 403 ;
404 [label="X[3] <= 99.5\nentropy = 0.7496\nsamples = 14\nvalue = [11, 3]"] ;
388 -> 404 ;
405 [label="X[3] <= 88.5\nentropy = 0.9852\nsamples = 7\nvalue = [4, 3]"] ;
404 -> 405 ;
406 [label="entropy = 0.0\nsamples = 3\nvalue = [3, 0]"] ;
405 -> 406 ;
407 [label="X[2] <= 26.5\nentropy = 0.8113\nsamples = 4\nvalue = [1, 3]"] ;
405 -> 407 ;
408 [label="entropy = 0.0\nsamples = 3\nvalue = [0, 3]"] ;
407 -> 408 ;
409 [label="entropy = 0.0\nsamples = 1\nvalue = [1, 0]"] ;
407 -> 409 ;
410 [label="entropy = 0.0\nsamples = 7\nvalue = [7, 0]"] ;
404 -> 410 ;
411 [label="X[18] <= 0.5\nentropy = 0.5226\nsamples = 17\nvalue = [15, 2]"] ;
387 -> 411 ;
412 [label="entropy = 0.0\nsamples = 12\nvalue = [12, 0]"] ;
411 -> 412 ;
413 [label="X[6] <= 4.0\nentropy = 0.971\nsamples = 5\nvalue = [3, 2]"] ;
411 -> 413 ;
414 [label="X[33] <= 0.5\nentropy = 0.9183\nsamples = 3\nvalue = [1, 2]"] ;
413 -> 414 ;
415 [label="entropy = 0.0\nsamples = 1\nvalue = [1, 0]"] ;
414 -> 415 ;
416 [label="entropy = 0.0\nsamples = 2\nvalue = [0, 2]"] ;
414 -> 416 ;
417 [label="entropy = 0.0\nsamples = 2\nvalue = [2, 0]"] ;
413 -> 417 ;
418 [label="entropy = 0.0\nsamples = 3\nvalue = [0, 3]"] ;
386 -> 418 ;
419 [label="X[1] <= 205.5\nentropy = 0.6577\nsamples = 100\nvalue = [83, 17]"] ;
163 -> 419 ;
420 [label="entropy = 0.0\nsamples = 28\nvalue = [28, 0]"] ;
419 -> 420 ;
421 [label="X[2] <= 20.5\nentropy = 0.7885\nsamples = 72\nvalue = [55, 17]"] ;
419 -> 421 ;
422 [label="X[0] <= 46.5\nentropy = 0.5033\nsamples = 45\nvalue = [40, 5]"] ;
421 -> 422 ;
423 [label="entropy = 0.0\nsamples = 21\nvalue = [21, 0]"] ;
422 -> 423 ;
424 [label="X[0] <= 57.5\nentropy = 0.7383\nsamples = 24\nvalue = [19, 5]"] ;
422 -> 424 ;
425 [label="X[34] <= 0.5\nentropy = 0.9544\nsamples = 8\nvalue = [3, 5]"] ;
424 -> 425 ;
426 [label="X[17] <= 0.5\nentropy = 0.65\nsamples = 6\nvalue = [1, 5]"] ;
425 -> 426 ;
427 [label="entropy = 0.0\nsamples = 5\nvalue = [0, 5]"] ;
426 -> 427 ;
428 [label="entropy = 0.0\nsamples = 1\nvalue = [1, 0]"] ;
426 -> 428 ;
429 [label="entropy = 0.0\nsamples = 2\nvalue = [2, 0]"] ;
425 -> 429 ;
430 [label="entropy = 0.0\nsamples = 16\nvalue = [16, 0]"] ;
424 -> 430 ;
431 [label="X[2] <= 28.5\nentropy = 0.9911\nsamples = 27\nvalue = [15, 12]"] ;
421 -> 431 ;
432 [label="X[2] <= 24.5\nentropy = 0.9544\nsamples = 24\nvalue = [15, 9]"] ;
431 -> 432 ;
433 [label="X[1] <= 451.0\nentropy = 0.971\nsamples = 10\nvalue = [4, 6]"] ;
432 -> 433 ;
434 [label="entropy = 0.0\nsamples = 3\nvalue = [0, 3]"] ;
433 -> 434 ;
435 [label="X[1] <= 2689.5\nentropy = 0.9852\nsamples = 7\nvalue = [4, 3]"] ;
433 -> 435 ;
436 [label="entropy = 0.0\nsamples = 3\nvalue = [3, 0]"] ;
435 -> 436 ;
437 [label="X[3] <= 123.5\nentropy = 0.8113\nsamples = 4\nvalue = [1, 3]"] ;
435 -> 437 ;
438 [label="entropy = 0.0\nsamples = 3\nvalue = [0, 3]"] ;
437 -> 438 ;
439 [label="entropy = 0.0\nsamples = 1\nvalue = [1, 0]"] ;
437 -> 439 ;
440 [label="X[2] <= 26.5\nentropy = 0.7496\nsamples = 14\nvalue = [11, 3]"] ;
432 -> 440 ;
441 [label="entropy = 0.0\nsamples = 6\nvalue = [6, 0]"] ;
440 -> 441 ;
442 [label="X[3] <= 110.5\nentropy = 0.9544\nsamples = 8\nvalue = [5, 3]"] ;
440 -> 442 ;
443 [label="X[1] <= 2531.0\nentropy = 0.65\nsamples = 6\nvalue = [5, 1]"] ;
442 -> 443 ;
444 [label="entropy = 0.0\nsamples = 4\nvalue = [4, 0]"] ;
443 -> 444 ;
445 [label="X[30] <= 0.5\nentropy = 1.0\nsamples = 2\nvalue = [1, 1]"] ;
443 -> 445 ;
446 [label="entropy = 0.0\nsamples = 1\nvalue = [0, 1]"] ;
445 -> 446 ;
447 [label="entropy = 0.0\nsamples = 1\nvalue = [1, 0]"] ;
445 -> 447 ;
448 [label="entropy = 0.0\nsamples = 2\nvalue = [0, 2]"] ;
442 -> 448 ;
449 [label="entropy = 0.0\nsamples = 3\nvalue = [0, 3]"] ;
431 -> 449 ;
450 [label="X[2] <= 13.5\nentropy = 0.8953\nsamples = 93\nvalue = [64, 29]"] ;
72 -> 450 ;
451 [label="X[6] <= 3.5\nentropy = 0.9784\nsamples = 58\nvalue = [34, 24]"] ;
450 -> 451 ;
452 [label="X[32] <= 0.5\nentropy = 0.9957\nsamples = 52\nvalue = [28, 24]"] ;
451 -> 452 ;
453 [label="X[7] <= 0.5\nentropy = 0.9799\nsamples = 48\nvalue = [28, 20]"] ;
452 -> 453 ;
454 [label="entropy = 0.0\nsamples = 4\nvalue = [4, 0]"] ;
453 -> 454 ;
455 [label="X[0] <= 31.5\nentropy = 0.994\nsamples = 44\nvalue = [24, 20]"] ;
453 -> 455 ;
456 [label="X[1] <= 587.0\nentropy = 0.8366\nsamples = 15\nvalue = [11, 4]"] ;
455 -> 456 ;
457 [label="X[3] <= 99.0\nentropy = 1.0\nsamples = 8\nvalue = [4, 4]"] ;
456 -> 457 ;
458 [label="X[0] <= 23.5\nentropy = 0.7219\nsamples = 5\nvalue = [1, 4]"] ;
457 -> 458 ;
459 [label="entropy = 0.0\nsamples = 1\nvalue = [1, 0]"] ;
458 -> 459 ;
460 [label="entropy = 0.0\nsamples = 4\nvalue = [0, 4]"] ;
458 -> 460 ;
461 [label="entropy = 0.0\nsamples = 3\nvalue = [3, 0]"] ;
457 -> 461 ;
462 [label="entropy = 0.0\nsamples = 7\nvalue = [7, 0]"] ;
456 -> 462 ;
463 [label="X[3] <= 105.5\nentropy = 0.9923\nsamples = 29\nvalue = [13, 16]"] ;
455 -> 463 ;
464 [label="X[3] <= 101.5\nentropy = 0.9403\nsamples = 14\nvalue = [9, 5]"] ;
463 -> 464 ;
465 [label="X[0] <= 35.5\nentropy = 1.0\nsamples = 10\nvalue = [5, 5]"] ;
464 -> 465 ;
466 [label="entropy = 0.0\nsamples = 2\nvalue = [0, 2]"] ;
465 -> 466 ;
467 [label="X[0] <= 44.0\nentropy = 0.9544\nsamples = 8\nvalue = [5, 3]"] ;
465 -> 467 ;
468 [label="entropy = 0.0\nsamples = 3\nvalue = [3, 0]"] ;
467 -> 468 ;
469 [label="X[14] <= 0.5\nentropy = 0.971\nsamples = 5\nvalue = [2, 3]"] ;
467 -> 469 ;
470 [label="X[5] <= 96.0\nentropy = 0.9183\nsamples = 3\nvalue = [2, 1]"] ;
469 -> 470 ;
471 [label="entropy = 0.0\nsamples = 2\nvalue = [2, 0]"] ;
470 -> 471 ;
472 [label="entropy = 0.0\nsamples = 1\nvalue = [0, 1]"] ;
470 -> 472 ;
473 [label="entropy = 0.0\nsamples = 2\nvalue = [0, 2]"] ;
469 -> 473 ;
474 [label="entropy = 0.0\nsamples = 4\nvalue = [4, 0]"] ;
464 -> 474 ;
475 [label="X[1] <= 3310.5\nentropy = 0.8366\nsamples = 15\nvalue = [4, 11]"] ;
463 -> 475 ;
476 [label="X[23] <= 0.5\nentropy = 0.9457\nsamples = 11\nvalue = [4, 7]"] ;
475 -> 476 ;
477 [label="X[3] <= 117.5\nentropy = 0.7642\nsamples = 9\nvalue = [2, 7]"] ;
476 -> 477 ;
478 [label="entropy = 0.0\nsamples = 5\nvalue = [0, 5]"] ;
477 -> 478 ;
479 [label="X[0] <= 48.5\nentropy = 1.0\nsamples = 4\nvalue = [2, 2]"] ;
477 -> 479 ;
480 [label="entropy = 0.0\nsamples = 2\nvalue = [2, 0]"] ;
479 -> 480 ;
481 [label="entropy = 0.0\nsamples = 2\nvalue = [0, 2]"] ;
479 -> 481 ;
482 [label="entropy = 0.0\nsamples = 2\nvalue = [2, 0]"] ;
476 -> 482 ;
483 [label="entropy = 0.0\nsamples = 4\nvalue = [0, 4]"] ;
475 -> 483 ;
484 [label="entropy = 0.0\nsamples = 4\nvalue = [0, 4]"] ;
452 -> 484 ;
485 [label="entropy = 0.0\nsamples = 6\nvalue = [6, 0]"] ;
451 -> 485 ;
486 [label="X[3] <= 94.5\nentropy = 0.5917\nsamples = 35\nvalue = [30, 5]"] ;
450 -> 486 ;
487 [label="entropy = 0.0\nsamples = 14\nvalue = [14, 0]"] ;
486 -> 487 ;
488 [label="X[13] <= 0.5\nentropy = 0.7919\nsamples = 21\nvalue = [16, 5]"] ;
486 -> 488 ;
489 [label="X[1] <= 123.5\nentropy = 0.5436\nsamples = 16\nvalue = [14, 2]"] ;
488 -> 489 ;
490 [label="X[1] <= 20.0\nentropy = 1.0\nsamples = 4\nvalue = [2, 2]"] ;
489 -> 490 ;
491 [label="entropy = 0.0\nsamples = 2\nvalue = [2, 0]"] ;
490 -> 491 ;
492 [label="entropy = 0.0\nsamples = 2\nvalue = [0, 2]"] ;
490 -> 492 ;
493 [label="entropy = 0.0\nsamples = 12\nvalue = [12, 0]"] ;
489 -> 493 ;
494 [label="X[1] <= 3940.0\nentropy = 0.971\nsamples = 5\nvalue = [2, 3]"] ;
488 -> 494 ;
495 [label="X[5] <= 164.5\nentropy = 0.9183\nsamples = 3\nvalue = [2, 1]"] ;
494 -> 495 ;
496 [label="entropy = 0.0\nsamples = 2\nvalue = [2, 0]"] ;
495 -> 496 ;
497 [label="entropy = 0.0\nsamples = 1\nvalue = [0, 1]"] ;
495 -> 497 ;
498 [label="entropy = 0.0\nsamples = 2\nvalue = [0, 2]"] ;
494 -> 498 ;
499 [label="X[17] <= 0.5\nentropy = 0.4933\nsamples = 14730\nvalue = [13142, 1588]"] ;
3 -> 499 ;
500 [label="X[36] <= 0.5\nentropy = 0.6435\nsamples = 7421\nvalue = [6205, 1216]"] ;
499 -> 500 ;
501 [label="X[40] <= 0.5\nentropy = 0.7324\nsamples = 5148\nvalue = [4091, 1057]"] ;
500 -> 501 ;
502 [label="X[44] <= 0.5\nentropy = 0.8321\nsamples = 3650\nvalue = [2688, 962]"] ;
501 -> 502 ;
503 [label="X[39] <= 0.5\nentropy = 0.8848\nsamples = 2915\nvalue = [2032, 883]"] ;
502 -> 503 ;
504 [label="X[38] <= 0.5\nentropy = 0.9224\nsamples = 2492\nvalue = [1651, 841]"] ;
503 -> 504 ;
505 [label="X[43] <= 0.5\nentropy = 0.9705\nsamples = 1796\nvalue = [1079, 717]"] ;
504 -> 505 ;
506 [label="X[3] <= 206.5\nentropy = 0.9936\nsamples = 1400\nvalue = [766, 634]"] ;
505 -> 506 ;
507 [label="X[4] <= 5.5\nentropy = 0.9302\nsamples = 590\nvalue = [386, 204]"] ;
506 -> 507 ;
508 [label="X[42] <= 0.5\nentropy = 0.9409\nsamples = 570\nvalue = [366, 204]"] ;
507 -> 508 ;
509 [label="X[5] <= 126.5\nentropy = 0.9142\nsamples = 495\nvalue = [332, 163]"] ;
508 -> 509 ;
510 [label="X[2] <= 29.5\nentropy = 0.939\nsamples = 419\nvalue = [270, 149]"] ;
509 -> 510 ;
511 [label="X[35] <= 0.5\nentropy = 0.9561\nsamples = 379\nvalue = [236, 143]"] ;
510 -> 511 ;
512 [label="X[5] <= 96.5\nentropy = 0.9064\nsamples = 261\nvalue = [177, 84]"] ;
511 -> 512 ;
513 [label="X[12] <= 0.5\nentropy = 0.8833\nsamples = 242\nvalue = [169, 73]"] ;
512 -> 513 ;
514 [label="X[5] <= 93.5\nentropy = 0.9136\nsamples = 216\nvalue = [145, 71]"] ;
513 -> 514 ;
515 [label="X[32] <= 0.5\nentropy = 0.9277\nsamples = 207\nvalue = [136, 71]"] ;
514 -> 515 ;
516 [label="X[25] <= 0.5\nentropy = 0.9019\nsamples = 192\nvalue = [131, 61]"] ;
515 -> 516 ;
517 [label="X[37] <= 0.5\nentropy = 0.8793\nsamples = 181\nvalue = [127, 54]"] ;
516 -> 517 ;
518 [label="X[1] <= 19162.0\nentropy = 0.8936\nsamples = 174\nvalue = [120, 54]"] ;
517 -> 518 ;
519 [label="X[1] <= 8409.0\nentropy = 0.8841\nsamples = 172\nvalue = [120, 52]"] ;
518 -> 519 ;
520 [label="X[1] <= 2156.0\nentropy = 0.8969\nsamples = 166\nvalue = [114, 52]"] ;
519 -> 520 ;
521 [label="X[3] <= 134.5\nentropy = 0.8334\nsamples = 121\nvalue = [89, 32]"] ;
520 -> 521 ;
522 [label="entropy = 0.0\nsamples = 8\nvalue = [8, 0]"] ;
521 -> 522 ;
523 [label="X[2] <= 4.5\nentropy = 0.8598\nsamples = 113\nvalue = [81, 32]"] ;
521 -> 523 ;
524 [label="X[1] <= 288.5\nentropy = 0.6292\nsamples = 38\nvalue = [32, 6]"] ;
523 -> 524 ;
525 [label="entropy = 0.0\nsamples = 19\nvalue = [19, 0]"] ;
524 -> 525 ;
526 [label="X[41] <= 0.5\nentropy = 0.8997\nsamples = 19\nvalue = [13, 6]"] ;
524 -> 526 ;
527 [label="entropy = 0.0\nsamples = 4\nvalue = [4, 0]"] ;
526 -> 527 ;
528 [label="X[0] <= 26.5\nentropy = 0.971\nsamples = 15\nvalue = [9, 6]"] ;
526 -> 528 ;
529 [label="entropy = 0.0\nsamples = 2\nvalue = [0, 2]"] ;
528 -> 529 ;
530 [label="X[34] <= 0.5\nentropy = 0.8905\nsamples = 13\nvalue = [9, 4]"] ;
528 -> 530 ;
531 [label="X[4] <= 1.5\nentropy = 1.0\nsamples = 8\nvalue = [4, 4]"] ;
530 -> 531 ;
532 [label="entropy = 0.0\nsamples = 2\nvalue = [2, 0]"] ;
531 -> 532 ;
533 [label="X[0] <= 44.5\nentropy = 0.9183\nsamples = 6\nvalue = [2, 4]"] ;
531 -> 533 ;
534 [label="X[1] <= 1117.5\nentropy = 0.9183\nsamples = 3\nvalue = [2, 1]"] ;
533 -> 534 ;
535 [label="entropy = 0.0\nsamples = 2\nvalue = [2, 0]"] ;
534 -> 535 ;
536 [label="entropy = 0.0\nsamples = 1\nvalue = [0, 1]"] ;
534 -> 536 ;
537 [label="entropy = 0.0\nsamples = 3\nvalue = [0, 3]"] ;
533 -> 537 ;
538 [label="entropy = 0.0\nsamples = 5\nvalue = [5, 0]"] ;
530 -> 538 ;
539 [label="X[1] <= 1113.0\nentropy = 0.9311\nsamples = 75\nvalue = [49, 26]"] ;
523 -> 539 ;
540 [label="X[18] <= 0.5\nentropy = 0.9852\nsamples = 56\nvalue = [32, 24]"] ;
539 -> 540 ;
541 [label="X[1] <= 15.5\nentropy = 0.9975\nsamples = 51\nvalue = [27, 24]"] ;
540 -> 541 ;
542 [label="X[4] <= 1.5\nentropy = 0.7642\nsamples = 9\nvalue = [7, 2]"] ;
541 -> 542 ;
543 [label="entropy = 0.0\nsamples = 7\nvalue = [7, 0]"] ;
542 -> 543 ;
544 [label="entropy = 0.0\nsamples = 2\nvalue = [0, 2]"] ;
542 -> 544 ;
545 [label="X[4] <= 1.5\nentropy = 0.9984\nsamples = 42\nvalue = [20, 22]"] ;
541 -> 545 ;
546 [label="X[3] <= 150.5\nentropy = 0.9044\nsamples = 25\nvalue = [8, 17]"] ;
545 -> 546 ;
547 [label="entropy = 0.0\nsamples = 8\nvalue = [0, 8]"] ;
546 -> 547 ;
548 [label="X[3] <= 168.0\nentropy = 0.9975\nsamples = 17\nvalue = [8, 9]"] ;
546 -> 548 ;
549 [label="entropy = 0.0\nsamples = 4\nvalue = [4, 0]"] ;
548 -> 549 ;
550 [label="X[0] <= 29.5\nentropy = 0.8905\nsamples = 13\nvalue = [4, 9]"] ;
548 -> 550 ;
551 [label="X[14] <= 0.5\nentropy = 1.0\nsamples = 8\nvalue = [4, 4]"] ;
550 -> 551 ;
552 [label="X[1] <= 98.0\nentropy = 0.9183\nsamples = 6\nvalue = [2, 4]"] ;
551 -> 552 ;
553 [label="entropy = 0.0\nsamples = 1\nvalue = [1, 0]"] ;
552 -> 553 ;
554 [label="X[1] <= 952.0\nentropy = 0.7219\nsamples = 5\nvalue = [1, 4]"] ;
552 -> 554 ;
555 [label="entropy = 0.0\nsamples = 4\nvalue = [0, 4]"] ;
554 -> 555 ;
556 [label="entropy = 0.0\nsamples = 1\nvalue = [1, 0]"] ;
554 -> 556 ;
557 [label="entropy = 0.0\nsamples = 2\nvalue = [2, 0]"] ;
551 -> 557 ;
558 [label="entropy = 0.0\nsamples = 5\nvalue = [0, 5]"] ;
550 -> 558 ;
559 [label="X[1] <= 216.0\nentropy = 0.874\nsamples = 17\nvalue = [12, 5]"] ;
545 -> 559 ;
560 [label="entropy = 0.0\nsamples = 2\nvalue = [0, 2]"] ;
559 -> 560 ;
561 [label="X[0] <= 35.5\nentropy = 0.7219\nsamples = 15\nvalue = [12, 3]"] ;
559 -> 561 ;
562 [label="X[1] <= 490.5\nentropy = 0.9852\nsamples = 7\nvalue = [4, 3]"] ;
561 -> 562 ;
563 [label="entropy = 0.0\nsamples = 4\nvalue = [4, 0]"] ;
562 -> 563 ;
564 [label="entropy = 0.0\nsamples = 3\nvalue = [0, 3]"] ;
562 -> 564 ;
565 [label="entropy = 0.0\nsamples = 8\nvalue = [8, 0]"] ;
561 -> 565 ;
566 [label="entropy = 0.0\nsamples = 5\nvalue = [5, 0]"] ;
540 -> 566 ;
567 [label="X[19] <= 0.5\nentropy = 0.4855\nsamples = 19\nvalue = [17, 2]"] ;
539 -> 567 ;
568 [label="entropy = 0.0\nsamples = 14\nvalue = [14, 0]"] ;
567 -> 568 ;
569 [label="X[41] <= 0.5\nentropy = 0.971\nsamples = 5\nvalue = [3, 2]"] ;
567 -> 569 ;
570 [label="entropy = 0.0\nsamples = 3\nvalue = [3, 0]"] ;
569 -> 570 ;
571 [label="entropy = 0.0\nsamples = 2\nvalue = [0, 2]"] ;
569 -> 571 ;
572 [label="X[3] <= 204.0\nentropy = 0.9911\nsamples = 45\nvalue = [25, 20]"] ;
520 -> 572 ;
573 [label="X[3] <= 200.5\nentropy = 0.9984\nsamples = 42\nvalue = [22, 20]"] ;
572 -> 573 ;
574 [label="X[1] <= 3541.0\nentropy = 0.9819\nsamples = 38\nvalue = [22, 16]"] ;
573 -> 574 ;
575 [label="X[0] <= 42.5\nentropy = 0.9544\nsamples = 16\nvalue = [6, 10]"] ;
574 -> 575 ;
576 [label="X[13] <= 0.5\nentropy = 0.994\nsamples = 11\nvalue = [6, 5]"] ;
575 -> 576 ;
577 [label="entropy = 0.0\nsamples = 4\nvalue = [4, 0]"] ;
576 -> 577 ;
578 [label="X[0] <= 31.5\nentropy = 0.8631\nsamples = 7\nvalue = [2, 5]"] ;
576 -> 578 ;
579 [label="entropy = 0.0\nsamples = 4\nvalue = [0, 4]"] ;
578 -> 579 ;
580 [label="X[41] <= 0.5\nentropy = 0.9183\nsamples = 3\nvalue = [2, 1]"] ;
578 -> 580 ;
581 [label="entropy = 0.0\nsamples = 2\nvalue = [2, 0]"] ;
580 -> 581 ;
582 [label="entropy = 0.0\nsamples = 1\nvalue = [0, 1]"] ;
580 -> 582 ;
583 [label="entropy = 0.0\nsamples = 5\nvalue = [0, 5]"] ;
575 -> 583 ;
584 [label="X[2] <= 18.0\nentropy = 0.8454\nsamples = 22\nvalue = [16, 6]"] ;
574 -> 584 ;
585 [label="X[1] <= 5291.5\nentropy = 0.5436\nsamples = 16\nvalue = [14, 2]"] ;
584 -> 585 ;
586 [label="entropy = 0.0\nsamples = 10\nvalue = [10, 0]"] ;
585 -> 586 ;
587 [label="X[1] <= 6771.0\nentropy = 0.9183\nsamples = 6\nvalue = [4, 2]"] ;
585 -> 587 ;
588 [label="X[41] <= 0.5\nentropy = 0.9183\nsamples = 3\nvalue = [1, 2]"] ;
587 -> 588 ;
589 [label="entropy = 0.0\nsamples = 1\nvalue = [1, 0]"] ;
588 -> 589 ;
590 [label="entropy = 0.0\nsamples = 2\nvalue = [0, 2]"] ;
588 -> 590 ;
591 [label="entropy = 0.0\nsamples = 3\nvalue = [3, 0]"] ;
587 -> 591 ;
592 [label="X[45] <= 0.5\nentropy = 0.9183\nsamples = 6\nvalue = [2, 4]"] ;
584 -> 592 ;
593 [label="entropy = 0.0\nsamples = 2\nvalue = [2, 0]"] ;
592 -> 593 ;
594 [label="entropy = 0.0\nsamples = 4\nvalue = [0, 4]"] ;
592 -> 594 ;
595 [label="entropy = 0.0\nsamples = 4\nvalue = [0, 4]"] ;
573 -> 595 ;
596 [label="entropy = 0.0\nsamples = 3\nvalue = [3, 0]"] ;
572 -> 596 ;
597 [label="entropy = 0.0\nsamples = 6\nvalue = [6, 0]"] ;
519 -> 597 ;
598 [label="entropy = 0.0\nsamples = 2\nvalue = [0, 2]"] ;
518 -> 598 ;
599 [label="entropy = 0.0\nsamples = 7\nvalue = [7, 0]"] ;
517 -> 599 ;
600 [label="X[0] <= 42.5\nentropy = 0.9457\nsamples = 11\nvalue = [4, 7]"] ;
516 -> 600 ;
601 [label="X[1] <= 15.5\nentropy = 0.7642\nsamples = 9\nvalue = [2, 7]"] ;
600 -> 601 ;
602 [label="entropy = 0.0\nsamples = 1\nvalue = [1, 0]"] ;
601 -> 602 ;
603 [label="X[3] <= 197.0\nentropy = 0.5436\nsamples = 8\nvalue = [1, 7]"] ;
601 -> 603 ;
604 [label="entropy = 0.0\nsamples = 7\nvalue = [0, 7]"] ;
603 -> 604 ;
605 [label="entropy = 0.0\nsamples = 1\nvalue = [1, 0]"] ;
603 -> 605 ;
606 [label="entropy = 0.0\nsamples = 2\nvalue = [2, 0]"] ;
600 -> 606 ;
607 [label="X[1] <= 762.5\nentropy = 0.9183\nsamples = 15\nvalue = [5, 10]"] ;
515 -> 607 ;
608 [label="X[1] <= 283.0\nentropy = 0.9911\nsamples = 9\nvalue = [5, 4]"] ;
607 -> 608 ;
609 [label="X[3] <= 156.5\nentropy = 0.9183\nsamples = 6\nvalue = [2, 4]"] ;
608 -> 609 ;
610 [label="entropy = 0.0\nsamples = 2\nvalue = [2, 0]"] ;
609 -> 610 ;
611 [label="entropy = 0.0\nsamples = 4\nvalue = [0, 4]"] ;
609 -> 611 ;
612 [label="entropy = 0.0\nsamples = 3\nvalue = [3, 0]"] ;
608 -> 612 ;
613 [label="entropy = 0.0\nsamples = 6\nvalue = [0, 6]"] ;
607 -> 613 ;
614 [label="entropy = 0.0\nsamples = 9\nvalue = [9, 0]"] ;
514 -> 614 ;
615 [label="X[3] <= 131.5\nentropy = 0.3912\nsamples = 26\nvalue = [24, 2]"] ;
513 -> 615 ;
616 [label="entropy = 0.0\nsamples = 1\nvalue = [0, 1]"] ;
615 -> 616 ;
617 [label="X[3] <= 192.5\nentropy = 0.2423\nsamples = 25\nvalue = [24, 1]"] ;
615 -> 617 ;
618 [label="entropy = 0.0\nsamples = 22\nvalue = [22, 0]"] ;
617 -> 618 ;
619 [label="X[46] <= 0.5\nentropy = 0.9183\nsamples = 3\nvalue = [2, 1]"] ;
617 -> 619 ;
620 [label="entropy = 0.0\nsamples = 2\nvalue = [2, 0]"] ;
619 -> 620 ;
621 [label="entropy = 0.0\nsamples = 1\nvalue = [0, 1]"] ;
619 -> 621 ;
622 [label="X[34] <= 0.5\nentropy = 0.9819\nsamples = 19\nvalue = [8, 11]"] ;
512 -> 622 ;
623 [label="X[3] <= 142.0\nentropy = 0.8366\nsamples = 15\nvalue = [4, 11]"] ;
622 -> 623 ;
624 [label="entropy = 0.0\nsamples = 2\nvalue = [2, 0]"] ;
623 -> 624 ;
625 [label="X[3] <= 168.0\nentropy = 0.6194\nsamples = 13\nvalue = [2, 11]"] ;
623 -> 625 ;
626 [label="entropy = 0.0\nsamples = 8\nvalue = [0, 8]"] ;
625 -> 626 ;
627 [label="X[5] <= 101.0\nentropy = 0.971\nsamples = 5\nvalue = [2, 3]"] ;
625 -> 627 ;
628 [label="entropy = 0.0\nsamples = 3\nvalue = [0, 3]"] ;
627 -> 628 ;
629 [label="entropy = 0.0\nsamples = 2\nvalue = [2, 0]"] ;
627 -> 629 ;
630 [label="entropy = 0.0\nsamples = 4\nvalue = [4, 0]"] ;
622 -> 630 ;
631 [label="X[33] <= 0.5\nentropy = 1.0\nsamples = 118\nvalue = [59, 59]"] ;
511 -> 631 ;
632 [label="X[2] <= 26.5\nentropy = 0.8709\nsamples = 48\nvalue = [14, 34]"] ;
631 -> 632 ;
633 [label="X[1] <= 1990.0\nentropy = 0.8281\nsamples = 46\nvalue = [12, 34]"] ;
632 -> 633 ;
634 [label="X[1] <= 1546.0\nentropy = 0.9367\nsamples = 34\nvalue = [12, 22]"] ;
633 -> 634 ;
635 [label="X[1] <= 140.5\nentropy = 0.8366\nsamples = 30\nvalue = [8, 22]"] ;
634 -> 635 ;
636 [label="entropy = 0.0\nsamples = 8\nvalue = [0, 8]"] ;
635 -> 636 ;
637 [label="X[4] <= 2.5\nentropy = 0.9457\nsamples = 22\nvalue = [8, 14]"] ;
635 -> 637 ;
638 [label="X[19] <= 0.5\nentropy = 0.9975\nsamples = 17\nvalue = [8, 9]"] ;
637 -> 638 ;
639 [label="X[0] <= 25.5\nentropy = 0.971\nsamples = 15\nvalue = [6, 9]"] ;
638 -> 639 ;
640 [label="entropy = 0.0\nsamples = 2\nvalue = [2, 0]"] ;
639 -> 640 ;
641 [label="X[0] <= 28.5\nentropy = 0.8905\nsamples = 13\nvalue = [4, 9]"] ;
639 -> 641 ;
642 [label="entropy = 0.0\nsamples = 5\nvalue = [0, 5]"] ;
641 -> 642 ;
643 [label="X[1] <= 329.0\nentropy = 1.0\nsamples = 8\nvalue = [4, 4]"] ;
641 -> 643 ;
644 [label="entropy = 0.0\nsamples = 2\nvalue = [0, 2]"] ;
643 -> 644 ;
645 [label="X[1] <= 676.5\nentropy = 0.9183\nsamples = 6\nvalue = [4, 2]"] ;
643 -> 645 ;
646 [label="entropy = 0.0\nsamples = 3\nvalue = [3, 0]"] ;
645 -> 646 ;
647 [label="X[0] <= 33.5\nentropy = 0.9183\nsamples = 3\nvalue = [1, 2]"] ;
645 -> 647 ;
648 [label="entropy = 0.0\nsamples = 1\nvalue = [1, 0]"] ;
647 -> 648 ;
649 [label="entropy = 0.0\nsamples = 2\nvalue = [0, 2]"] ;
647 -> 649 ;
650 [label="entropy = 0.0\nsamples = 2\nvalue = [2, 0]"] ;
638 -> 650 ;
651 [label="entropy = 0.0\nsamples = 5\nvalue = [0, 5]"] ;
637 -> 651 ;
652 [label="entropy = 0.0\nsamples = 4\nvalue = [4, 0]"] ;
634 -> 652 ;
653 [label="entropy = 0.0\nsamples = 12\nvalue = [0, 12]"] ;
633 -> 653 ;
654 [label="entropy = 0.0\nsamples = 2\nvalue = [2, 0]"] ;
632 -> 654 ;
655 [label="X[1] <= 229.0\nentropy = 0.9403\nsamples = 70\nvalue = [45, 25]"] ;
631 -> 655 ;
656 [label="X[2] <= 27.5\nentropy = 0.6723\nsamples = 17\nvalue = [14, 3]"] ;
655 -> 656 ;
657 [label="X[21] <= 0.5\nentropy = 0.5436\nsamples = 16\nvalue = [14, 2]"] ;
656 -> 657 ;
658 [label="X[25] <= 0.5\nentropy = 0.3534\nsamples = 15\nvalue = [14, 1]"] ;
657 -> 658 ;
659 [label="entropy = 0.0\nsamples = 14\nvalue = [14, 0]"] ;
658 -> 659 ;
660 [label="entropy = 0.0\nsamples = 1\nvalue = [0, 1]"] ;
658 -> 660 ;
661 [label="entropy = 0.0\nsamples = 1\nvalue = [0, 1]"] ;
657 -> 661 ;
662 [label="entropy = 0.0\nsamples = 1\nvalue = [0, 1]"] ;
656 -> 662 ;
663 [label="X[1] <= 295.0\nentropy = 0.9791\nsamples = 53\nvalue = [31, 22]"] ;
655 -> 663 ;
664 [label="entropy = 0.0\nsamples = 3\nvalue = [0, 3]"] ;
663 -> 664 ;
665 [label="X[0] <= 29.5\nentropy = 0.958\nsamples = 50\nvalue = [31, 19]"] ;
663 -> 665 ;
666 [label="entropy = 0.0\nsamples = 2\nvalue = [0, 2]"] ;
665 -> 666 ;
667 [label="X[24] <= 0.5\nentropy = 0.9377\nsamples = 48\nvalue = [31, 17]"] ;
665 -> 667 ;
668 [label="X[21] <= 0.5\nentropy = 0.9565\nsamples = 45\nvalue = [28, 17]"] ;
667 -> 668 ;
669 [label="X[2] <= 5.5\nentropy = 0.9737\nsamples = 42\nvalue = [25, 17]"] ;
668 -> 669 ;
670 [label="entropy = 0.0\nsamples = 2\nvalue = [0, 2]"] ;
669 -> 670 ;
671 [label="X[1] <= 607.0\nentropy = 0.9544\nsamples = 40\nvalue = [25, 15]"] ;
669 -> 671 ;
672 [label="X[0] <= 50.5\nentropy = 0.9183\nsamples = 6\nvalue = [2, 4]"] ;
671 -> 672 ;
673 [label="entropy = 0.0\nsamples = 3\nvalue = [0, 3]"] ;
672 -> 673 ;
674 [label="X[3] <= 148.0\nentropy = 0.9183\nsamples = 3\nvalue = [2, 1]"] ;
672 -> 674 ;
675 [label="entropy = 0.0\nsamples = 1\nvalue = [0, 1]"] ;
674 -> 675 ;
676 [label="entropy = 0.0\nsamples = 2\nvalue = [2, 0]"] ;
674 -> 676 ;
677 [label="X[1] <= 895.5\nentropy = 0.9082\nsamples = 34\nvalue = [23, 11]"] ;
671 -> 677 ;
678 [label="entropy = 0.0\nsamples = 6\nvalue = [6, 0]"] ;
677 -> 678 ;
679 [label="X[1] <= 1123.0\nentropy = 0.9666\nsamples = 28\nvalue = [17, 11]"] ;
677 -> 679 ;
680 [label="entropy = 0.0\nsamples = 3\nvalue = [0, 3]"] ;
679 -> 680 ;
681 [label="X[12] <= 0.5\nentropy = 0.9044\nsamples = 25\nvalue = [17, 8]"] ;
679 -> 681 ;
682 [label="X[3] <= 175.5\nentropy = 0.5436\nsamples = 16\nvalue = [14, 2]"] ;
681 -> 682 ;
683 [label="entropy = 0.0\nsamples = 11\nvalue = [11, 0]"] ;
682 -> 683 ;
684 [label="X[2] <= 10.5\nentropy = 0.971\nsamples = 5\nvalue = [3, 2]"] ;
682 -> 684 ;
685 [label="entropy = 0.0\nsamples = 2\nvalue = [2, 0]"] ;
684 -> 685 ;
686 [label="X[4] <= 3.5\nentropy = 0.9183\nsamples = 3\nvalue = [1, 2]"] ;
684 -> 686 ;
687 [label="entropy = 0.0\nsamples = 2\nvalue = [0, 2]"] ;
686 -> 687 ;
688 [label="entropy = 0.0\nsamples = 1\nvalue = [1, 0]"] ;
686 -> 688 ;
689 [label="X[3] <= 182.5\nentropy = 0.9183\nsamples = 9\nvalue = [3, 6]"] ;
681 -> 689 ;
690 [label="X[22] <= 0.5\nentropy = 0.5917\nsamples = 7\nvalue = [1, 6]"] ;
689 -> 690 ;
691 [label="entropy = 0.0\nsamples = 6\nvalue = [0, 6]"] ;
690 -> 691 ;
692 [label="entropy = 0.0\nsamples = 1\nvalue = [1, 0]"] ;
690 -> 692 ;
693 [label="entropy = 0.0\nsamples = 2\nvalue = [2, 0]"] ;
689 -> 693 ;
694 [label="entropy = 0.0\nsamples = 3\nvalue = [3, 0]"] ;
668 -> 694 ;
695 [label="entropy = 0.0\nsamples = 3\nvalue = [3, 0]"] ;
667 -> 695 ;
696 [label="X[45] <= 0.5\nentropy = 0.6098\nsamples = 40\nvalue = [34, 6]"] ;
510 -> 696 ;
697 [label="X[22] <= 0.5\nentropy = 0.3228\nsamples = 34\nvalue = [32, 2]"] ;
696 -> 697 ;
698 [label="entropy = 0.0\nsamples = 22\nvalue = [22, 0]"] ;
697 -> 698 ;
699 [label="X[1] <= 954.0\nentropy = 0.65\nsamples = 12\nvalue = [10, 2]"] ;
697 -> 699 ;
700 [label="entropy = 0.0\nsamples = 6\nvalue = [6, 0]"] ;
699 -> 700 ;
701 [label="X[1] <= 1496.5\nentropy = 0.9183\nsamples = 6\nvalue = [4, 2]"] ;
699 -> 701 ;
702 [label="entropy = 0.0\nsamples = 2\nvalue = [0, 2]"] ;
701 -> 702 ;
703 [label="entropy = 0.0\nsamples = 4\nvalue = [4, 0]"] ;
701 -> 703 ;
704 [label="X[13] <= 0.5\nentropy = 0.9183\nsamples = 6\nvalue = [2, 4]"] ;
696 -> 704 ;
705 [label="X[1] <= 907.5\nentropy = 0.9183\nsamples = 3\nvalue = [2, 1]"] ;
704 -> 705 ;
706 [label="entropy = 0.0\nsamples = 1\nvalue = [0, 1]"] ;
705 -> 706 ;
707 [label="entropy = 0.0\nsamples = 2\nvalue = [2, 0]"] ;
705 -> 707 ;
708 [label="entropy = 0.0\nsamples = 3\nvalue = [0, 3]"] ;
704 -> 708 ;
709 [label="X[3] <= 172.5\nentropy = 0.6892\nsamples = 76\nvalue = [62, 14]"] ;
509 -> 709 ;
710 [label="X[1] <= 414.0\nentropy = 0.3534\nsamples = 45\nvalue = [42, 3]"] ;
709 -> 710 ;
711 [label="X[5] <= 372.5\nentropy = 0.7496\nsamples = 14\nvalue = [11, 3]"] ;
710 -> 711 ;
712 [label="X[5] <= 164.5\nentropy = 0.4138\nsamples = 12\nvalue = [11, 1]"] ;
711 -> 712 ;
713 [label="entropy = 0.0\nsamples = 1\nvalue = [0, 1]"] ;
712 -> 713 ;
714 [label="entropy = 0.0\nsamples = 11\nvalue = [11, 0]"] ;
712 -> 714 ;
715 [label="entropy = 0.0\nsamples = 2\nvalue = [0, 2]"] ;
711 -> 715 ;
716 [label="entropy = 0.0\nsamples = 31\nvalue = [31, 0]"] ;
710 -> 716 ;
717 [label="X[5] <= 182.5\nentropy = 0.9383\nsamples = 31\nvalue = [20, 11]"] ;
709 -> 717 ;
718 [label="entropy = 0.0\nsamples = 7\nvalue = [7, 0]"] ;
717 -> 718 ;
719 [label="X[5] <= 348.0\nentropy = 0.995\nsamples = 24\nvalue = [13, 11]"] ;
717 -> 719 ;
720 [label="X[1] <= 1434.5\nentropy = 0.9928\nsamples = 20\nvalue = [9, 11]"] ;
719 -> 720 ;
721 [label="X[2] <= 20.5\nentropy = 0.7219\nsamples = 10\nvalue = [2, 8]"] ;
720 -> 721 ;
722 [label="X[3] <= 191.5\nentropy = 1.0\nsamples = 4\nvalue = [2, 2]"] ;
721 -> 722 ;
723 [label="entropy = 0.0\nsamples = 2\nvalue = [0, 2]"] ;
722 -> 723 ;
724 [label="entropy = 0.0\nsamples = 2\nvalue = [2, 0]"] ;
722 -> 724 ;
725 [label="entropy = 0.0\nsamples = 6\nvalue = [0, 6]"] ;
721 -> 725 ;
726 [label="X[1] <= 3441.0\nentropy = 0.8813\nsamples = 10\nvalue = [7, 3]"] ;
720 -> 726 ;
727 [label="entropy = 0.0\nsamples = 4\nvalue = [4, 0]"] ;
726 -> 727 ;
728 [label="X[3] <= 189.5\nentropy = 1.0\nsamples = 6\nvalue = [3, 3]"] ;
726 -> 728 ;
729 [label="entropy = 0.0\nsamples = 3\nvalue = [0, 3]"] ;
728 -> 729 ;
730 [label="entropy = 0.0\nsamples = 3\nvalue = [3, 0]"] ;
728 -> 730 ;
731 [label="entropy = 0.0\nsamples = 4\nvalue = [4, 0]"] ;
719 -> 731 ;
732 [label="X[2] <= 13.5\nentropy = 0.9937\nsamples = 75\nvalue = [34, 41]"] ;
508 -> 732 ;
733 [label="X[1] <= 26.0\nentropy = 0.8631\nsamples = 35\nvalue = [10, 25]"] ;
732 -> 733 ;
734 [label="entropy = 0.0\nsamples = 2\nvalue = [2, 0]"] ;
733 -> 734 ;
735 [label="X[3] <= 168.5\nentropy = 0.799\nsamples = 33\nvalue = [8, 25]"] ;
733 -> 735 ;
736 [label="X[1] <= 301.0\nentropy = 0.9587\nsamples = 21\nvalue = [8, 13]"] ;
735 -> 736 ;
737 [label="entropy = 0.0\nsamples = 4\nvalue = [0, 4]"] ;
736 -> 737 ;
738 [label="X[1] <= 1467.5\nentropy = 0.9975\nsamples = 17\nvalue = [8, 9]"] ;
736 -> 738 ;
739 [label="X[3] <= 154.0\nentropy = 0.8813\nsamples = 10\nvalue = [7, 3]"] ;
738 -> 739 ;
740 [label="X[18] <= 0.5\nentropy = 0.5436\nsamples = 8\nvalue = [7, 1]"] ;
739 -> 740 ;
741 [label="entropy = 0.0\nsamples = 7\nvalue = [7, 0]"] ;
740 -> 741 ;
742 [label="entropy = 0.0\nsamples = 1\nvalue = [0, 1]"] ;
740 -> 742 ;
743 [label="entropy = 0.0\nsamples = 2\nvalue = [0, 2]"] ;
739 -> 743 ;
744 [label="X[31] <= 0.5\nentropy = 0.5917\nsamples = 7\nvalue = [1, 6]"] ;
738 -> 744 ;
745 [label="entropy = 0.0\nsamples = 6\nvalue = [0, 6]"] ;
744 -> 745 ;
746 [label="entropy = 0.0\nsamples = 1\nvalue = [1, 0]"] ;
744 -> 746 ;
747 [label="entropy = 0.0\nsamples = 12\nvalue = [0, 12]"] ;
735 -> 747 ;
748 [label="X[5] <= 181.5\nentropy = 0.971\nsamples = 40\nvalue = [24, 16]"] ;
732 -> 748 ;
749 [label="X[1] <= 1670.0\nentropy = 0.9975\nsamples = 34\nvalue = [18, 16]"] ;
748 -> 749 ;
750 [label="X[1] <= 1027.5\nentropy = 0.8997\nsamples = 19\nvalue = [13, 6]"] ;
749 -> 750 ;
751 [label="X[1] <= 802.5\nentropy = 0.9957\nsamples = 13\nvalue = [7, 6]"] ;
750 -> 751 ;
752 [label="X[1] <= 509.5\nentropy = 0.8813\nsamples = 10\nvalue = [7, 3]"] ;
751 -> 752 ;
753 [label="X[27] <= 0.5\nentropy = 1.0\nsamples = 6\nvalue = [3, 3]"] ;
752 -> 753 ;
754 [label="X[30] <= 0.5\nentropy = 0.8113\nsamples = 4\nvalue = [1, 3]"] ;
753 -> 754 ;
755 [label="entropy = 0.0\nsamples = 1\nvalue = [1, 0]"] ;
754 -> 755 ;
756 [label="entropy = 0.0\nsamples = 3\nvalue = [0, 3]"] ;
754 -> 756 ;
757 [label="entropy = 0.0\nsamples = 2\nvalue = [2, 0]"] ;
753 -> 757 ;
758 [label="entropy = 0.0\nsamples = 4\nvalue = [4, 0]"] ;
752 -> 758 ;
759 [label="entropy = 0.0\nsamples = 3\nvalue = [0, 3]"] ;
751 -> 759 ;
760 [label="entropy = 0.0\nsamples = 6\nvalue = [6, 0]"] ;
750 -> 760 ;
761 [label="X[1] <= 3871.0\nentropy = 0.9183\nsamples = 15\nvalue = [5, 10]"] ;
749 -> 761 ;
762 [label="X[26] <= 0.5\nentropy = 0.469\nsamples = 10\nvalue = [1, 9]"] ;
761 -> 762 ;
763 [label="entropy = 0.0\nsamples = 9\nvalue = [0, 9]"] ;
762 -> 763 ;
764 [label="entropy = 0.0\nsamples = 1\nvalue = [1, 0]"] ;
762 -> 764 ;
765 [label="X[34] <= 0.5\nentropy = 0.7219\nsamples = 5\nvalue = [4, 1]"] ;
761 -> 765 ;
766 [label="entropy = 0.0\nsamples = 4\nvalue = [4, 0]"] ;
765 -> 766 ;
767 [label="entropy = 0.0\nsamples = 1\nvalue = [0, 1]"] ;
765 -> 767 ;
768 [label="entropy = 0.0\nsamples = 6\nvalue = [6, 0]"] ;
748 -> 768 ;
769 [label="entropy = 0.0\nsamples = 20\nvalue = [20, 0]"] ;
507 -> 769 ;
770 [label="X[47] <= 0.5\nentropy = 0.9972\nsamples = 810\nvalue = [380, 430]"] ;
506 -> 770 ;
771 [label="X[7] <= 0.5\nentropy = 0.987\nsamples = 665\nvalue = [288, 377]"] ;
770 -> 771 ;
772 [label="X[2] <= 7.5\nentropy = 0.9827\nsamples = 97\nvalue = [56, 41]"] ;
771 -> 772 ;
773 [label="X[0] <= 57.5\nentropy = 0.6194\nsamples = 26\nvalue = [22, 4]"] ;
772 -> 773 ;
774 [label="X[0] <= 52.5\nentropy = 0.8905\nsamples = 13\nvalue = [9, 4]"] ;
773 -> 774 ;
775 [label="X[34] <= 0.5\nentropy = 0.684\nsamples = 11\nvalue = [9, 2]"] ;
774 -> 775 ;
776 [label="entropy = 0.0\nsamples = 7\nvalue = [7, 0]"] ;
775 -> 776 ;
777 [label="X[3] <= 347.5\nentropy = 1.0\nsamples = 4\nvalue = [2, 2]"] ;
775 -> 777 ;
778 [label="entropy = 0.0\nsamples = 2\nvalue = [2, 0]"] ;
777 -> 778 ;
779 [label="entropy = 0.0\nsamples = 2\nvalue = [0, 2]"] ;
777 -> 779 ;
780 [label="entropy = 0.0\nsamples = 2\nvalue = [0, 2]"] ;
774 -> 780 ;
781 [label="entropy = 0.0\nsamples = 13\nvalue = [13, 0]"] ;
773 -> 781 ;
782 [label="X[26] <= 0.5\nentropy = 0.9987\nsamples = 71\nvalue = [34, 37]"] ;
772 -> 782 ;
783 [label="X[3] <= 392.0\nentropy = 0.9861\nsamples = 65\nvalue = [28, 37]"] ;
782 -> 783 ;
784 [label="X[0] <= 49.5\nentropy = 0.9968\nsamples = 60\nvalue = [28, 32]"] ;
783 -> 784 ;
785 [label="X[6] <= 9.5\nentropy = 0.8315\nsamples = 19\nvalue = [5, 14]"] ;
784 -> 785 ;
786 [label="X[20] <= 0.5\nentropy = 0.6723\nsamples = 17\nvalue = [3, 14]"] ;
785 -> 786 ;
787 [label="X[1] <= 1968.5\nentropy = 0.5436\nsamples = 16\nvalue = [2, 14]"] ;
786 -> 787 ;
788 [label="entropy = 0.0\nsamples = 11\nvalue = [0, 11]"] ;
787 -> 788 ;
789 [label="X[2] <= 14.5\nentropy = 0.971\nsamples = 5\nvalue = [2, 3]"] ;
787 -> 789 ;
790 [label="entropy = 0.0\nsamples = 2\nvalue = [0, 2]"] ;
789 -> 790 ;
791 [label="X[2] <= 25.5\nentropy = 0.9183\nsamples = 3\nvalue = [2, 1]"] ;
789 -> 791 ;
792 [label="entropy = 0.0\nsamples = 2\nvalue = [2, 0]"] ;
791 -> 792 ;
793 [label="entropy = 0.0\nsamples = 1\nvalue = [0, 1]"] ;
791 -> 793 ;
794 [label="entropy = 0.0\nsamples = 1\nvalue = [1, 0]"] ;
786 -> 794 ;
795 [label="entropy = 0.0\nsamples = 2\nvalue = [2, 0]"] ;
785 -> 795 ;
796 [label="X[1] <= 1085.0\nentropy = 0.9892\nsamples = 41\nvalue = [23, 18]"] ;
784 -> 796 ;
797 [label="X[3] <= 261.0\nentropy = 0.7219\nsamples = 20\nvalue = [16, 4]"] ;
796 -> 797 ;
798 [label="entropy = 0.0\nsamples = 7\nvalue = [7, 0]"] ;
797 -> 798 ;
799 [label="X[0] <= 64.0\nentropy = 0.8905\nsamples = 13\nvalue = [9, 4]"] ;
797 -> 799 ;
800 [label="entropy = 0.0\nsamples = 5\nvalue = [5, 0]"] ;
799 -> 800 ;
801 [label="X[12] <= 0.5\nentropy = 1.0\nsamples = 8\nvalue = [4, 4]"] ;
799 -> 801 ;
802 [label="X[1] <= 771.5\nentropy = 0.7219\nsamples = 5\nvalue = [4, 1]"] ;
801 -> 802 ;
803 [label="entropy = 0.0\nsamples = 4\nvalue = [4, 0]"] ;
802 -> 803 ;
804 [label="entropy = 0.0\nsamples = 1\nvalue = [0, 1]"] ;
802 -> 804 ;
805 [label="entropy = 0.0\nsamples = 3\nvalue = [0, 3]"] ;
801 -> 805 ;
806 [label="X[0] <= 56.5\nentropy = 0.9183\nsamples = 21\nvalue = [7, 14]"] ;
796 -> 806 ;
807 [label="entropy = 0.0\nsamples = 2\nvalue = [2, 0]"] ;
806 -> 807 ;
808 [label="X[4] <= 1.5\nentropy = 0.8315\nsamples = 19\nvalue = [5, 14]"] ;
806 -> 808 ;
809 [label="entropy = 0.0\nsamples = 5\nvalue = [0, 5]"] ;
808 -> 809 ;
810 [label="X[3] <= 354.5\nentropy = 0.9403\nsamples = 14\nvalue = [5, 9]"] ;
808 -> 810 ;
811 [label="X[3] <= 261.0\nentropy = 0.8113\nsamples = 12\nvalue = [3, 9]"] ;
810 -> 811 ;
812 [label="X[50] <= 0.5\nentropy = 1.0\nsamples = 6\nvalue = [3, 3]"] ;
811 -> 812 ;
813 [label="entropy = 0.0\nsamples = 2\nvalue = [2, 0]"] ;
812 -> 813 ;
814 [label="X[23] <= 0.5\nentropy = 0.8113\nsamples = 4\nvalue = [1, 3]"] ;
812 -> 814 ;
815 [label="entropy = 0.0\nsamples = 1\nvalue = [1, 0]"] ;
814 -> 815 ;
816 [label="entropy = 0.0\nsamples = 3\nvalue = [0, 3]"] ;
814 -> 816 ;
817 [label="entropy = 0.0\nsamples = 6\nvalue = [0, 6]"] ;
811 -> 817 ;
818 [label="entropy = 0.0\nsamples = 2\nvalue = [2, 0]"] ;
810 -> 818 ;
819 [label="entropy = 0.0\nsamples = 5\nvalue = [0, 5]"] ;
783 -> 819 ;
820 [label="entropy = 0.0\nsamples = 6\nvalue = [6, 0]"] ;
782 -> 820 ;
821 [label="X[42] <= 0.5\nentropy = 0.9757\nsamples = 568\nvalue = [232, 336]"] ;
771 -> 821 ;
822 [label="X[2] <= 21.5\nentropy = 0.9863\nsamples = 501\nvalue = [216, 285]"] ;
821 -> 822 ;
823 [label="X[2] <= 6.5\nentropy = 0.9989\nsamples = 335\nvalue = [161, 174]"] ;
822 -> 823 ;
824 [label="X[12] <= 0.5\nentropy = 0.9652\nsamples = 128\nvalue = [50, 78]"] ;
823 -> 824 ;
825 [label="X[1] <= 2002.0\nentropy = 0.9398\nsamples = 115\nvalue = [41, 74]"] ;
824 -> 825 ;
826 [label="X[46] <= 0.5\nentropy = 0.8813\nsamples = 90\nvalue = [27, 63]"] ;
825 -> 826 ;
827 [label="X[0] <= 29.5\nentropy = 0.9268\nsamples = 76\nvalue = [26, 50]"] ;
826 -> 827 ;
828 [label="X[3] <= 267.5\nentropy = 0.5917\nsamples = 21\nvalue = [3, 18]"] ;
827 -> 828 ;
829 [label="X[3] <= 258.0\nentropy = 0.8813\nsamples = 10\nvalue = [3, 7]"] ;
828 -> 829 ;
830 [label="X[33] <= 0.5\nentropy = 0.5436\nsamples = 8\nvalue = [1, 7]"] ;
829 -> 830 ;
831 [label="entropy = 0.0\nsamples = 7\nvalue = [0, 7]"] ;
830 -> 831 ;
832 [label="entropy = 0.0\nsamples = 1\nvalue = [1, 0]"] ;
830 -> 832 ;
833 [label="entropy = 0.0\nsamples = 2\nvalue = [2, 0]"] ;
829 -> 833 ;
834 [label="entropy = 0.0\nsamples = 11\nvalue = [0, 11]"] ;
828 -> 834 ;
835 [label="X[5] <= 73.5\nentropy = 0.9806\nsamples = 55\nvalue = [23, 32]"] ;
827 -> 835 ;
836 [label="X[4] <= 2.5\nentropy = 0.9612\nsamples = 52\nvalue = [20, 32]"] ;
835 -> 836 ;
837 [label="X[28] <= 0.5\nentropy = 0.9877\nsamples = 46\nvalue = [20, 26]"] ;
836 -> 837 ;
838 [label="X[3] <= 229.5\nentropy = 0.9587\nsamples = 42\nvalue = [16, 26]"] ;
837 -> 838 ;
839 [label="X[3] <= 211.0\nentropy = 0.8631\nsamples = 7\nvalue = [5, 2]"] ;
838 -> 839 ;
840 [label="entropy = 0.0\nsamples = 2\nvalue = [0, 2]"] ;
839 -> 840 ;
841 [label="entropy = 0.0\nsamples = 5\nvalue = [5, 0]"] ;
839 -> 841 ;
842 [label="X[2] <= 2.5\nentropy = 0.8981\nsamples = 35\nvalue = [11, 24]"] ;
838 -> 842 ;
843 [label="X[14] <= 0.5\nentropy = 0.7383\nsamples = 24\nvalue = [5, 19]"] ;
842 -> 843 ;
844 [label="entropy = 0.0\nsamples = 10\nvalue = [0, 10]"] ;
843 -> 844 ;
845 [label="X[0] <= 35.5\nentropy = 0.9403\nsamples = 14\nvalue = [5, 9]"] ;
843 -> 845 ;
846 [label="entropy = 0.0\nsamples = 4\nvalue = [0, 4]"] ;
845 -> 846 ;
847 [label="X[4] <= 1.5\nentropy = 1.0\nsamples = 10\nvalue = [5, 5]"] ;
845 -> 847 ;
848 [label="X[3] <= 311.0\nentropy = 0.9183\nsamples = 6\nvalue = [4, 2]"] ;
847 -> 848 ;
849 [label="X[22] <= 0.5\nentropy = 0.9183\nsamples = 3\nvalue = [1, 2]"] ;
848 -> 849 ;
850 [label="entropy = 0.0\nsamples = 1\nvalue = [1, 0]"] ;
849 -> 850 ;
851 [label="entropy = 0.0\nsamples = 2\nvalue = [0, 2]"] ;
849 -> 851 ;
852 [label="entropy = 0.0\nsamples = 3\nvalue = [3, 0]"] ;
848 -> 852 ;
853 [label="X[27] <= 0.5\nentropy = 0.8113\nsamples = 4\nvalue = [1, 3]"] ;
847 -> 853 ;
854 [label="entropy = 0.0\nsamples = 3\nvalue = [0, 3]"] ;
853 -> 854 ;
855 [label="entropy = 0.0\nsamples = 1\nvalue = [1, 0]"] ;
853 -> 855 ;
856 [label="X[13] <= 0.5\nentropy = 0.994\nsamples = 11\nvalue = [6, 5]"] ;
842 -> 856 ;
857 [label="X[2] <= 4.0\nentropy = 0.8631\nsamples = 7\nvalue = [2, 5]"] ;
856 -> 857 ;
858 [label="X[3] <= 258.5\nentropy = 0.9183\nsamples = 3\nvalue = [2, 1]"] ;
857 -> 858 ;
859 [label="entropy = 0.0\nsamples = 1\nvalue = [0, 1]"] ;
858 -> 859 ;
860 [label="entropy = 0.0\nsamples = 2\nvalue = [2, 0]"] ;
858 -> 860 ;
861 [label="entropy = 0.0\nsamples = 4\nvalue = [0, 4]"] ;
857 -> 861 ;
862 [label="entropy = 0.0\nsamples = 4\nvalue = [4, 0]"] ;
856 -> 862 ;
863 [label="entropy = 0.0\nsamples = 4\nvalue = [4, 0]"] ;
837 -> 863 ;
864 [label="entropy = 0.0\nsamples = 6\nvalue = [0, 6]"] ;
836 -> 864 ;
865 [label="entropy = 0.0\nsamples = 3\nvalue = [3, 0]"] ;
835 -> 865 ;
866 [label="X[3] <= 223.0\nentropy = 0.3712\nsamples = 14\nvalue = [1, 13]"] ;
826 -> 866 ;
867 [label="X[33] <= 0.5\nentropy = 1.0\nsamples = 2\nvalue = [1, 1]"] ;
866 -> 867 ;
868 [label="entropy = 0.0\nsamples = 1\nvalue = [1, 0]"] ;
867 -> 868 ;
869 [label="entropy = 0.0\nsamples = 1\nvalue = [0, 1]"] ;
867 -> 869 ;
870 [label="entropy = 0.0\nsamples = 12\nvalue = [0, 12]"] ;
866 -> 870 ;
871 [label="X[0] <= 46.0\nentropy = 0.9896\nsamples = 25\nvalue = [14, 11]"] ;
825 -> 871 ;
872 [label="X[0] <= 33.0\nentropy = 0.874\nsamples = 17\nvalue = [12, 5]"] ;
871 -> 872 ;
873 [label="X[1] <= 2516.0\nentropy = 1.0\nsamples = 10\nvalue = [5, 5]"] ;
872 -> 873 ;
874 [label="entropy = 0.0\nsamples = 3\nvalue = [3, 0]"] ;
873 -> 874 ;
875 [label="X[41] <= 0.5\nentropy = 0.8631\nsamples = 7\nvalue = [2, 5]"] ;
873 -> 875 ;
876 [label="X[1] <= 3488.5\nentropy = 0.9183\nsamples = 3\nvalue = [2, 1]"] ;
875 -> 876 ;
877 [label="entropy = 0.0\nsamples = 1\nvalue = [0, 1]"] ;
876 -> 877 ;
878 [label="entropy = 0.0\nsamples = 2\nvalue = [2, 0]"] ;
876 -> 878 ;
879 [label="entropy = 0.0\nsamples = 4\nvalue = [0, 4]"] ;
875 -> 879 ;
880 [label="entropy = 0.0\nsamples = 7\nvalue = [7, 0]"] ;
872 -> 880 ;
881 [label="X[1] <= 2560.5\nentropy = 0.8113\nsamples = 8\nvalue = [2, 6]"] ;
871 -> 881 ;
882 [label="X[0] <= 53.5\nentropy = 0.9183\nsamples = 3\nvalue = [2, 1]"] ;
881 -> 882 ;
883 [label="entropy = 0.0\nsamples = 1\nvalue = [0, 1]"] ;
882 -> 883 ;
884 [label="entropy = 0.0\nsamples = 2\nvalue = [2, 0]"] ;
882 -> 884 ;
885 [label="entropy = 0.0\nsamples = 5\nvalue = [0, 5]"] ;
881 -> 885 ;
886 [label="X[3] <= 230.5\nentropy = 0.8905\nsamples = 13\nvalue = [9, 4]"] ;
824 -> 886 ;
887 [label="entropy = 0.0\nsamples = 3\nvalue = [3, 0]"] ;
886 -> 887 ;
888 [label="X[0] <= 72.0\nentropy = 0.971\nsamples = 10\nvalue = [6, 4]"] ;
886 -> 888 ;
889 [label="X[21] <= 0.5\nentropy = 1.0\nsamples = 8\nvalue = [4, 4]"] ;
888 -> 889 ;
890 [label="X[0] <= 42.5\nentropy = 0.9183\nsamples = 6\nvalue = [2, 4]"] ;
889 -> 890 ;
891 [label="X[1] <= 824.5\nentropy = 0.9183\nsamples = 3\nvalue = [2, 1]"] ;
890 -> 891 ;
892 [label="entropy = 0.0\nsamples = 1\nvalue = [0, 1]"] ;
891 -> 892 ;
893 [label="entropy = 0.0\nsamples = 2\nvalue = [2, 0]"] ;
891 -> 893 ;
894 [label="entropy = 0.0\nsamples = 3\nvalue = [0, 3]"] ;
890 -> 894 ;
895 [label="entropy = 0.0\nsamples = 2\nvalue = [2, 0]"] ;
889 -> 895 ;
896 [label="entropy = 0.0\nsamples = 2\nvalue = [2, 0]"] ;
888 -> 896 ;
897 [label="X[0] <= 46.5\nentropy = 0.9962\nsamples = 207\nvalue = [111, 96]"] ;
823 -> 897 ;
898 [label="X[15] <= 0.5\nentropy = 0.9693\nsamples = 141\nvalue = [85, 56]"] ;
897 -> 898 ;
899 [label="X[6] <= 18.0\nentropy = 0.944\nsamples = 130\nvalue = [83, 47]"] ;
898 -> 899 ;
900 [label="X[5] <= 359.0\nentropy = 0.9355\nsamples = 128\nvalue = [83, 45]"] ;
899 -> 900 ;
901 [label="X[5] <= 219.0\nentropy = 0.926\nsamples = 126\nvalue = [83, 43]"] ;
900 -> 901 ;
902 [label="X[24] <= 0.5\nentropy = 0.9413\nsamples = 120\nvalue = [77, 43]"] ;
901 -> 902 ;
903 [label="X[1] <= 17.0\nentropy = 0.9536\nsamples = 115\nvalue = [72, 43]"] ;
902 -> 903 ;
904 [label="X[50] <= 0.5\nentropy = 0.5033\nsamples = 9\nvalue = [8, 1]"] ;
903 -> 904 ;
905 [label="entropy = 0.0\nsamples = 1\nvalue = [0, 1]"] ;
904 -> 905 ;
906 [label="entropy = 0.0\nsamples = 8\nvalue = [8, 0]"] ;
904 -> 906 ;
907 [label="X[6] <= 4.5\nentropy = 0.9687\nsamples = 106\nvalue = [64, 42]"] ;
903 -> 907 ;
908 [label="X[3] <= 216.5\nentropy = 0.9774\nsamples = 102\nvalue = [60, 42]"] ;
907 -> 908 ;
909 [label="X[1] <= 628.5\nentropy = 0.9183\nsamples = 12\nvalue = [4, 8]"] ;
908 -> 909 ;
910 [label="entropy = 0.0\nsamples = 4\nvalue = [0, 4]"] ;
909 -> 910 ;
911 [label="X[1] <= 2997.0\nentropy = 1.0\nsamples = 8\nvalue = [4, 4]"] ;
909 -> 911 ;
912 [label="X[22] <= 0.5\nentropy = 0.7219\nsamples = 5\nvalue = [4, 1]"] ;
911 -> 912 ;
913 [label="entropy = 0.0\nsamples = 4\nvalue = [4, 0]"] ;
912 -> 913 ;
914 [label="entropy = 0.0\nsamples = 1\nvalue = [0, 1]"] ;
912 -> 914 ;
915 [label="entropy = 0.0\nsamples = 3\nvalue = [0, 3]"] ;
911 -> 915 ;
916 [label="X[3] <= 281.5\nentropy = 0.9565\nsamples = 90\nvalue = [56, 34]"] ;
908 -> 916 ;
917 [label="X[0] <= 35.5\nentropy = 0.7897\nsamples = 38\nvalue = [29, 9]"] ;
916 -> 917 ;
918 [label="X[37] <= 0.5\nentropy = 0.8813\nsamples = 30\nvalue = [21, 9]"] ;
917 -> 918 ;
919 [label="X[1] <= 3892.5\nentropy = 0.9544\nsamples = 24\nvalue = [15, 9]"] ;
918 -> 919 ;
920 [label="X[1] <= 1725.5\nentropy = 0.998\nsamples = 19\nvalue = [10, 9]"] ;
919 -> 920 ;
921 [label="X[3] <= 258.5\nentropy = 0.9183\nsamples = 15\nvalue = [10, 5]"] ;
920 -> 921 ;
922 [label="X[27] <= 0.5\nentropy = 1.0\nsamples = 10\nvalue = [5, 5]"] ;
921 -> 922 ;
923 [label="X[4] <= 1.5\nentropy = 0.8631\nsamples = 7\nvalue = [2, 5]"] ;
922 -> 923 ;
924 [label="X[1] <= 211.0\nentropy = 0.9183\nsamples = 3\nvalue = [2, 1]"] ;
923 -> 924 ;
925 [label="entropy = 0.0\nsamples = 1\nvalue = [0, 1]"] ;
924 -> 925 ;
926 [label="entropy = 0.0\nsamples = 2\nvalue = [2, 0]"] ;
924 -> 926 ;
927 [label="entropy = 0.0\nsamples = 4\nvalue = [0, 4]"] ;
923 -> 927 ;
928 [label="entropy = 0.0\nsamples = 3\nvalue = [3, 0]"] ;
922 -> 928 ;
929 [label="entropy = 0.0\nsamples = 5\nvalue = [5, 0]"] ;
921 -> 929 ;
930 [label="entropy = 0.0\nsamples = 4\nvalue = [0, 4]"] ;
920 -> 930 ;
931 [label="entropy = 0.0\nsamples = 5\nvalue = [5, 0]"] ;
919 -> 931 ;
932 [label="entropy = 0.0\nsamples = 6\nvalue = [6, 0]"] ;
918 -> 932 ;
933 [label="entropy = 0.0\nsamples = 8\nvalue = [8, 0]"] ;
917 -> 933 ;
934 [label="X[3] <= 334.5\nentropy = 0.9989\nsamples = 52\nvalue = [27, 25]"] ;
916 -> 934 ;
935 [label="X[34] <= 0.5\nentropy = 0.8905\nsamples = 26\nvalue = [8, 18]"] ;
934 -> 935 ;
936 [label="X[22] <= 0.5\nentropy = 1.0\nsamples = 14\nvalue = [7, 7]"] ;
935 -> 936 ;
937 [label="X[0] <= 33.0\nentropy = 0.8113\nsamples = 8\nvalue = [2, 6]"] ;
936 -> 937 ;
938 [label="entropy = 0.0\nsamples = 2\nvalue = [2, 0]"] ;
937 -> 938 ;
939 [label="entropy = 0.0\nsamples = 6\nvalue = [0, 6]"] ;
937 -> 939 ;
940 [label="X[37] <= 0.5\nentropy = 0.65\nsamples = 6\nvalue = [5, 1]"] ;
936 -> 940 ;
941 [label="entropy = 0.0\nsamples = 5\nvalue = [5, 0]"] ;
940 -> 941 ;
942 [label="entropy = 0.0\nsamples = 1\nvalue = [0, 1]"] ;
940 -> 942 ;
943 [label="X[19] <= 0.5\nentropy = 0.4138\nsamples = 12\nvalue = [1, 11]"] ;
935 -> 943 ;
944 [label="entropy = 0.0\nsamples = 10\nvalue = [0, 10]"] ;
943 -> 944 ;
945 [label="X[14] <= 0.5\nentropy = 1.0\nsamples = 2\nvalue = [1, 1]"] ;
943 -> 945 ;
946 [label="entropy = 0.0\nsamples = 1\nvalue = [1, 0]"] ;
945 -> 946 ;
947 [label="entropy = 0.0\nsamples = 1\nvalue = [0, 1]"] ;
945 -> 947 ;
948 [label="X[3] <= 346.5\nentropy = 0.8404\nsamples = 26\nvalue = [19, 7]"] ;
934 -> 948 ;
949 [label="entropy = 0.0\nsamples = 7\nvalue = [7, 0]"] ;
948 -> 949 ;
950 [label="X[27] <= 0.5\nentropy = 0.9495\nsamples = 19\nvalue = [12, 7]"] ;
948 -> 950 ;
951 [label="X[41] <= 0.5\nentropy = 0.8113\nsamples = 16\nvalue = [12, 4]"] ;
950 -> 951 ;
952 [label="X[1] <= 260.0\nentropy = 0.4138\nsamples = 12\nvalue = [11, 1]"] ;
951 -> 952 ;
953 [label="X[35] <= 0.5\nentropy = 1.0\nsamples = 2\nvalue = [1, 1]"] ;
952 -> 953 ;
954 [label="entropy = 0.0\nsamples = 1\nvalue = [0, 1]"] ;
953 -> 954 ;
955 [label="entropy = 0.0\nsamples = 1\nvalue = [1, 0]"] ;
953 -> 955 ;
956 [label="entropy = 0.0\nsamples = 10\nvalue = [10, 0]"] ;
952 -> 956 ;
957 [label="X[19] <= 0.5\nentropy = 0.8113\nsamples = 4\nvalue = [1, 3]"] ;
951 -> 957 ;
958 [label="entropy = 0.0\nsamples = 3\nvalue = [0, 3]"] ;
957 -> 958 ;
959 [label="entropy = 0.0\nsamples = 1\nvalue = [1, 0]"] ;
957 -> 959 ;
960 [label="entropy = 0.0\nsamples = 3\nvalue = [0, 3]"] ;
950 -> 960 ;
961 [label="entropy = 0.0\nsamples = 4\nvalue = [4, 0]"] ;
907 -> 961 ;
962 [label="entropy = 0.0\nsamples = 5\nvalue = [5, 0]"] ;
902 -> 962 ;
963 [label="entropy = 0.0\nsamples = 6\nvalue = [6, 0]"] ;
901 -> 963 ;
964 [label="entropy = 0.0\nsamples = 2\nvalue = [0, 2]"] ;
900 -> 964 ;
965 [label="entropy = 0.0\nsamples = 2\nvalue = [0, 2]"] ;
899 -> 965 ;
966 [label="X[3] <= 233.0\nentropy = 0.684\nsamples = 11\nvalue = [2, 9]"] ;
898 -> 966 ;
967 [label="X[3] <= 213.0\nentropy = 0.9183\nsamples = 3\nvalue = [2, 1]"] ;
966 -> 967 ;
968 [label="entropy = 0.0\nsamples = 1\nvalue = [0, 1]"] ;
967 -> 968 ;
969 [label="entropy = 0.0\nsamples = 2\nvalue = [2, 0]"] ;
967 -> 969 ;
970 [label="entropy = 0.0\nsamples = 8\nvalue = [0, 8]"] ;
966 -> 970 ;
971 [label="X[3] <= 382.0\nentropy = 0.9673\nsamples = 66\nvalue = [26, 40]"] ;
897 -> 971 ;
972 [label="X[3] <= 220.0\nentropy = 0.9842\nsamples = 61\nvalue = [26, 35]"] ;
971 -> 972 ;
973 [label="entropy = 0.0\nsamples = 4\nvalue = [0, 4]"] ;
972 -> 973 ;
974 [label="X[0] <= 58.5\nentropy = 0.9944\nsamples = 57\nvalue = [26, 31]"] ;
972 -> 974 ;
975 [label="X[3] <= 292.5\nentropy = 0.8936\nsamples = 29\nvalue = [9, 20]"] ;
974 -> 975 ;
976 [label="X[45] <= 0.5\nentropy = 0.998\nsamples = 19\nvalue = [9, 10]"] ;
975 -> 976 ;
977 [label="X[1] <= 3061.0\nentropy = 0.9544\nsamples = 16\nvalue = [6, 10]"] ;
976 -> 977 ;
978 [label="X[2] <= 14.0\nentropy = 1.0\nsamples = 12\nvalue = [6, 6]"] ;
977 -> 978 ;
979 [label="entropy = 0.0\nsamples = 3\nvalue = [3, 0]"] ;
978 -> 979 ;
980 [label="X[4] <= 1.5\nentropy = 0.9183\nsamples = 9\nvalue = [3, 6]"] ;
978 -> 980 ;
981 [label="X[33] <= 0.5\nentropy = 1.0\nsamples = 6\nvalue = [3, 3]"] ;
980 -> 981 ;
982 [label="entropy = 0.0\nsamples = 2\nvalue = [0, 2]"] ;
981 -> 982 ;
983 [label="X[20] <= 0.5\nentropy = 0.8113\nsamples = 4\nvalue = [3, 1]"] ;
981 -> 983 ;
984 [label="entropy = 0.0\nsamples = 3\nvalue = [3, 0]"] ;
983 -> 984 ;
985 [label="entropy = 0.0\nsamples = 1\nvalue = [0, 1]"] ;
983 -> 985 ;
986 [label="entropy = 0.0\nsamples = 3\nvalue = [0, 3]"] ;
980 -> 986 ;
987 [label="entropy = 0.0\nsamples = 4\nvalue = [0, 4]"] ;
977 -> 987 ;
988 [label="entropy = 0.0\nsamples = 3\nvalue = [3, 0]"] ;
976 -> 988 ;
989 [label="entropy = 0.0\nsamples = 10\nvalue = [0, 10]"] ;
975 -> 989 ;
990 [label="X[0] <= 60.5\nentropy = 0.9666\nsamples = 28\nvalue = [17, 11]"] ;
974 -> 990 ;
991 [label="entropy = 0.0\nsamples = 4\nvalue = [4, 0]"] ;
990 -> 991 ;
992 [label="X[0] <= 76.5\nentropy = 0.995\nsamples = 24\nvalue = [13, 11]"] ;
990 -> 992 ;
993 [label="X[3] <= 273.0\nentropy = 0.976\nsamples = 22\nvalue = [13, 9]"] ;
992 -> 993 ;
994 [label="X[0] <= 69.5\nentropy = 0.971\nsamples = 10\nvalue = [4, 6]"] ;
993 -> 994 ;
995 [label="X[3] <= 222.0\nentropy = 0.8113\nsamples = 8\nvalue = [2, 6]"] ;
994 -> 995 ;
996 [label="entropy = 0.0\nsamples = 1\nvalue = [1, 0]"] ;
995 -> 996 ;
997 [label="X[14] <= 0.5\nentropy = 0.5917\nsamples = 7\nvalue = [1, 6]"] ;
995 -> 997 ;
998 [label="entropy = 0.0\nsamples = 6\nvalue = [0, 6]"] ;
997 -> 998 ;
999 [label="entropy = 0.0\nsamples = 1\nvalue = [1, 0]"] ;
997 -> 999 ;
1000 [label="entropy = 0.0\nsamples = 2\nvalue = [2, 0]"] ;
994 -> 1000 ;
1001 [label="X[0] <= 71.5\nentropy = 0.8113\nsamples = 12\nvalue = [9, 3]"] ;
993 -> 1001 ;
1002 [label="X[1] <= 79.5\nentropy = 0.5033\nsamples = 9\nvalue = [8, 1]"] ;
1001 -> 1002 ;
1003 [label="entropy = 0.0\nsamples = 1\nvalue = [0, 1]"] ;
1002 -> 1003 ;
1004 [label="entropy = 0.0\nsamples = 8\nvalue = [8, 0]"] ;
1002 -> 1004 ;
1005 [label="X[2] <= 18.0\nentropy = 0.9183\nsamples = 3\nvalue = [1, 2]"] ;
1001 -> 1005 ;
1006 [label="entropy = 0.0\nsamples = 1\nvalue = [1, 0]"] ;
1005 -> 1006 ;
1007 [label="entropy = 0.0\nsamples = 2\nvalue = [0, 2]"] ;
1005 -> 1007 ;
1008 [label="entropy = 0.0\nsamples = 2\nvalue = [0, 2]"] ;
992 -> 1008 ;
1009 [label="entropy = 0.0\nsamples = 5\nvalue = [0, 5]"] ;
971 -> 1009 ;
1010 [label="X[6] <= 2.5\nentropy = 0.9163\nsamples = 166\nvalue = [55, 111]"] ;
822 -> 1010 ;
1011 [label="X[1] <= 15499.5\nentropy = 0.9486\nsamples = 147\nvalue = [54, 93]"] ;
1010 -> 1011 ;
1012 [label="X[3] <= 209.5\nentropy = 0.9338\nsamples = 143\nvalue = [50, 93]"] ;
1011 -> 1012 ;
1013 [label="entropy = 0.0\nsamples = 5\nvalue = [0, 5]"] ;
1012 -> 1013 ;
1014 [label="X[26] <= 0.5\nentropy = 0.9446\nsamples = 138\nvalue = [50, 88]"] ;
1012 -> 1014 ;
1015 [label="X[1] <= 854.5\nentropy = 0.96\nsamples = 128\nvalue = [49, 79]"] ;
1014 -> 1015 ;
1016 [label="X[1] <= 545.5\nentropy = 0.9957\nsamples = 65\nvalue = [30, 35]"] ;
1015 -> 1016 ;
1017 [label="X[33] <= 0.5\nentropy = 0.9252\nsamples = 47\nvalue = [16, 31]"] ;
1016 -> 1017 ;
1018 [label="X[23] <= 0.5\nentropy = 0.6343\nsamples = 25\nvalue = [4, 21]"] ;
1017 -> 1018 ;
1019 [label="X[2] <= 28.0\nentropy = 0.4395\nsamples = 22\nvalue = [2, 20]"] ;
1018 -> 1019 ;
1020 [label="X[31] <= 0.5\nentropy = 0.8113\nsamples = 8\nvalue = [2, 6]"] ;
1019 -> 1020 ;
1021 [label="X[18] <= 0.5\nentropy = 0.5917\nsamples = 7\nvalue = [1, 6]"] ;
1020 -> 1021 ;
1022 [label="entropy = 0.0\nsamples = 5\nvalue = [0, 5]"] ;
1021 -> 1022 ;
1023 [label="X[1] <= 225.0\nentropy = 1.0\nsamples = 2\nvalue = [1, 1]"] ;
1021 -> 1023 ;
1024 [label="entropy = 0.0\nsamples = 1\nvalue = [1, 0]"] ;
1023 -> 1024 ;
1025 [label="entropy = 0.0\nsamples = 1\nvalue = [0, 1]"] ;
1023 -> 1025 ;
1026 [label="entropy = 0.0\nsamples = 1\nvalue = [1, 0]"] ;
1020 -> 1026 ;
1027 [label="entropy = 0.0\nsamples = 14\nvalue = [0, 14]"] ;
1019 -> 1027 ;
1028 [label="X[1] <= 9.0\nentropy = 0.9183\nsamples = 3\nvalue = [2, 1]"] ;
1018 -> 1028 ;
1029 [label="entropy = 0.0\nsamples = 1\nvalue = [0, 1]"] ;
1028 -> 1029 ;
1030 [label="entropy = 0.0\nsamples = 2\nvalue = [2, 0]"] ;
1028 -> 1030 ;
1031 [label="X[0] <= 51.5\nentropy = 0.994\nsamples = 22\nvalue = [12, 10]"] ;
1017 -> 1031 ;
1032 [label="X[4] <= 1.5\nentropy = 0.8113\nsamples = 12\nvalue = [9, 3]"] ;
1031 -> 1032 ;
1033 [label="entropy = 0.0\nsamples = 8\nvalue = [8, 0]"] ;
1032 -> 1033 ;
1034 [label="X[3] <= 386.0\nentropy = 0.8113\nsamples = 4\nvalue = [1, 3]"] ;
1032 -> 1034 ;
1035 [label="entropy = 0.0\nsamples = 3\nvalue = [0, 3]"] ;
1034 -> 1035 ;
1036 [label="entropy = 0.0\nsamples = 1\nvalue = [1, 0]"] ;
1034 -> 1036 ;
1037 [label="X[35] <= 0.5\nentropy = 0.8813\nsamples = 10\nvalue = [3, 7]"] ;
1031 -> 1037 ;
1038 [label="X[3] <= 396.0\nentropy = 0.8113\nsamples = 4\nvalue = [3, 1]"] ;
1037 -> 1038 ;
1039 [label="entropy = 0.0\nsamples = 3\nvalue = [3, 0]"] ;
1038 -> 1039 ;
1040 [label="entropy = 0.0\nsamples = 1\nvalue = [0, 1]"] ;
1038 -> 1040 ;
1041 [label="entropy = 0.0\nsamples = 6\nvalue = [0, 6]"] ;
1037 -> 1041 ;
1042 [label="X[0] <= 67.0\nentropy = 0.7642\nsamples = 18\nvalue = [14, 4]"] ;
1016 -> 1042 ;
1043 [label="X[18] <= 0.5\nentropy = 0.3534\nsamples = 15\nvalue = [14, 1]"] ;
1042 -> 1043 ;
1044 [label="entropy = 0.0\nsamples = 13\nvalue = [13, 0]"] ;
1043 -> 1044 ;
1045 [label="X[34] <= 0.5\nentropy = 1.0\nsamples = 2\nvalue = [1, 1]"] ;
1043 -> 1045 ;
1046 [label="entropy = 0.0\nsamples = 1\nvalue = [1, 0]"] ;
1045 -> 1046 ;
1047 [label="entropy = 0.0\nsamples = 1\nvalue = [0, 1]"] ;
1045 -> 1047 ;
1048 [label="entropy = 0.0\nsamples = 3\nvalue = [0, 3]"] ;
1042 -> 1048 ;
1049 [label="X[0] <= 28.5\nentropy = 0.8832\nsamples = 63\nvalue = [19, 44]"] ;
1015 -> 1049 ;
1050 [label="entropy = 0.0\nsamples = 7\nvalue = [0, 7]"] ;
1049 -> 1050 ;
1051 [label="X[4] <= 4.5\nentropy = 0.9241\nsamples = 56\nvalue = [19, 37]"] ;
1049 -> 1051 ;
1052 [label="X[46] <= 0.5\nentropy = 0.8987\nsamples = 54\nvalue = [17, 37]"] ;
1051 -> 1052 ;
1053 [label="X[0] <= 45.5\nentropy = 0.9313\nsamples = 49\nvalue = [17, 32]"] ;
1052 -> 1053 ;
1054 [label="X[1] <= 2286.5\nentropy = 0.7706\nsamples = 31\nvalue = [7, 24]"] ;
1053 -> 1054 ;
1055 [label="entropy = 0.0\nsamples = 14\nvalue = [0, 14]"] ;
1054 -> 1055 ;
1056 [label="X[3] <= 310.0\nentropy = 0.9774\nsamples = 17\nvalue = [7, 10]"] ;
1054 -> 1056 ;
1057 [label="X[3] <= 245.0\nentropy = 0.9457\nsamples = 11\nvalue = [7, 4]"] ;
1056 -> 1057 ;
1058 [label="X[0] <= 34.0\nentropy = 0.9183\nsamples = 6\nvalue = [2, 4]"] ;
1057 -> 1058 ;
1059 [label="X[3] <= 224.0\nentropy = 0.9183\nsamples = 3\nvalue = [2, 1]"] ;
1058 -> 1059 ;
1060 [label="entropy = 0.0\nsamples = 2\nvalue = [2, 0]"] ;
1059 -> 1060 ;
1061 [label="entropy = 0.0\nsamples = 1\nvalue = [0, 1]"] ;
1059 -> 1061 ;
1062 [label="entropy = 0.0\nsamples = 3\nvalue = [0, 3]"] ;
1058 -> 1062 ;
1063 [label="entropy = 0.0\nsamples = 5\nvalue = [5, 0]"] ;
1057 -> 1063 ;
1064 [label="entropy = 0.0\nsamples = 6\nvalue = [0, 6]"] ;
1056 -> 1064 ;
1065 [label="X[14] <= 0.5\nentropy = 0.9911\nsamples = 18\nvalue = [10, 8]"] ;
1053 -> 1065 ;
1066 [label="X[4] <= 1.5\nentropy = 0.7219\nsamples = 10\nvalue = [8, 2]"] ;
1065 -> 1066 ;
1067 [label="X[1] <= 1048.5\nentropy = 0.5033\nsamples = 9\nvalue = [8, 1]"] ;
1066 -> 1067 ;
1068 [label="entropy = 0.0\nsamples = 1\nvalue = [0, 1]"] ;
1067 -> 1068 ;
1069 [label="entropy = 0.0\nsamples = 8\nvalue = [8, 0]"] ;
1067 -> 1069 ;
1070 [label="entropy = 0.0\nsamples = 1\nvalue = [0, 1]"] ;
1066 -> 1070 ;
1071 [label="X[45] <= 0.5\nentropy = 0.8113\nsamples = 8\nvalue = [2, 6]"] ;
1065 -> 1071 ;
1072 [label="entropy = 0.0\nsamples = 5\nvalue = [0, 5]"] ;
1071 -> 1072 ;
1073 [label="X[3] <= 215.5\nentropy = 0.9183\nsamples = 3\nvalue = [2, 1]"] ;
1071 -> 1073 ;
1074 [label="entropy = 0.0\nsamples = 1\nvalue = [0, 1]"] ;
1073 -> 1074 ;
1075 [label="entropy = 0.0\nsamples = 2\nvalue = [2, 0]"] ;
1073 -> 1075 ;
1076 [label="entropy = 0.0\nsamples = 5\nvalue = [0, 5]"] ;
1052 -> 1076 ;
1077 [label="entropy = 0.0\nsamples = 2\nvalue = [2, 0]"] ;
1051 -> 1077 ;
1078 [label="X[2] <= 25.0\nentropy = 0.469\nsamples = 10\nvalue = [1, 9]"] ;
1014 -> 1078 ;
1079 [label="X[0] <= 20.0\nentropy = 1.0\nsamples = 2\nvalue = [1, 1]"] ;
1078 -> 1079 ;
1080 [label="entropy = 0.0\nsamples = 1\nvalue = [0, 1]"] ;
1079 -> 1080 ;
1081 [label="entropy = 0.0\nsamples = 1\nvalue = [1, 0]"] ;
1079 -> 1081 ;
1082 [label="entropy = 0.0\nsamples = 8\nvalue = [0, 8]"] ;
1078 -> 1082 ;
1083 [label="entropy = 0.0\nsamples = 4\nvalue = [4, 0]"] ;
1011 -> 1083 ;
1084 [label="X[3] <= 260.0\nentropy = 0.2975\nsamples = 19\nvalue = [1, 18]"] ;
1010 -> 1084 ;
1085 [label="X[2] <= 26.5\nentropy = 0.9183\nsamples = 3\nvalue = [1, 2]"] ;
1084 -> 1085 ;
1086 [label="entropy = 0.0\nsamples = 2\nvalue = [0, 2]"] ;
1085 -> 1086 ;
1087 [label="entropy = 0.0\nsamples = 1\nvalue = [1, 0]"] ;
1085 -> 1087 ;
1088 [label="entropy = 0.0\nsamples = 16\nvalue = [0, 16]"] ;
1084 -> 1088 ;
1089 [label="X[1] <= 605.5\nentropy = 0.793\nsamples = 67\nvalue = [16, 51]"] ;
821 -> 1089 ;
1090 [label="X[1] <= 129.0\nentropy = 0.4587\nsamples = 31\nvalue = [3, 28]"] ;
1089 -> 1090 ;
1091 [label="X[0] <= 36.5\nentropy = 0.9852\nsamples = 7\nvalue = [3, 4]"] ;
1090 -> 1091 ;
1092 [label="entropy = 0.0\nsamples = 3\nvalue = [3, 0]"] ;
1091 -> 1092 ;
1093 [label="entropy = 0.0\nsamples = 4\nvalue = [0, 4]"] ;
1091 -> 1093 ;
1094 [label="entropy = 0.0\nsamples = 24\nvalue = [0, 24]"] ;
1090 -> 1094 ;
1095 [label="X[1] <= 1977.0\nentropy = 0.9436\nsamples = 36\nvalue = [13, 23]"] ;
1089 -> 1095 ;
1096 [label="X[0] <= 25.0\nentropy = 0.9911\nsamples = 18\nvalue = [10, 8]"] ;
1095 -> 1096 ;
1097 [label="entropy = 0.0\nsamples = 3\nvalue = [0, 3]"] ;
1096 -> 1097 ;
1098 [label="X[6] <= 0.5\nentropy = 0.9183\nsamples = 15\nvalue = [10, 5]"] ;
1096 -> 1098 ;
1099 [label="X[14] <= 0.5\nentropy = 0.994\nsamples = 11\nvalue = [6, 5]"] ;
1098 -> 1099 ;
1100 [label="X[2] <= 14.0\nentropy = 0.8113\nsamples = 8\nvalue = [6, 2]"] ;
1099 -> 1100 ;
1101 [label="X[3] <= 254.0\nentropy = 0.9183\nsamples = 3\nvalue = [1, 2]"] ;
1100 -> 1101 ;
1102 [label="entropy = 0.0\nsamples = 1\nvalue = [1, 0]"] ;
1101 -> 1102 ;
1103 [label="entropy = 0.0\nsamples = 2\nvalue = [0, 2]"] ;
1101 -> 1103 ;
1104 [label="entropy = 0.0\nsamples = 5\nvalue = [5, 0]"] ;
1100 -> 1104 ;
1105 [label="entropy = 0.0\nsamples = 3\nvalue = [0, 3]"] ;
1099 -> 1105 ;
1106 [label="entropy = 0.0\nsamples = 4\nvalue = [4, 0]"] ;
1098 -> 1106 ;
1107 [label="X[22] <= 0.5\nentropy = 0.65\nsamples = 18\nvalue = [3, 15]"] ;
1095 -> 1107 ;
1108 [label="entropy = 0.0\nsamples = 8\nvalue = [0, 8]"] ;
1107 -> 1108 ;
1109 [label="X[32] <= 0.5\nentropy = 0.8813\nsamples = 10\nvalue = [3, 7]"] ;
1107 -> 1109 ;
1110 [label="X[4] <= 1.5\nentropy = 0.7642\nsamples = 9\nvalue = [2, 7]"] ;
1109 -> 1110 ;
1111 [label="X[0] <= 40.5\nentropy = 0.971\nsamples = 5\nvalue = [2, 3]"] ;
1110 -> 1111 ;
1112 [label="entropy = 0.0\nsamples = 2\nvalue = [0, 2]"] ;
1111 -> 1112 ;
1113 [label="X[0] <= 50.0\nentropy = 0.9183\nsamples = 3\nvalue = [2, 1]"] ;
1111 -> 1113 ;
1114 [label="entropy = 0.0\nsamples = 2\nvalue = [2, 0]"] ;
1113 -> 1114 ;
1115 [label="entropy = 0.0\nsamples = 1\nvalue = [0, 1]"] ;
1113 -> 1115 ;
1116 [label="entropy = 0.0\nsamples = 4\nvalue = [0, 4]"] ;
1110 -> 1116 ;
1117 [label="entropy = 0.0\nsamples = 1\nvalue = [1, 0]"] ;
1109 -> 1117 ;
1118 [label="X[5] <= 80.0\nentropy = 0.9472\nsamples = 145\nvalue = [92, 53]"] ;
770 -> 1118 ;
1119 [label="X[3] <= 332.0\nentropy = 0.8454\nsamples = 11\nvalue = [3, 8]"] ;
1118 -> 1119 ;
1120 [label="entropy = 0.0\nsamples = 7\nvalue = [0, 7]"] ;
1119 -> 1120 ;
1121 [label="X[3] <= 377.5\nentropy = 0.8113\nsamples = 4\nvalue = [3, 1]"] ;
1119 -> 1121 ;
1122 [label="entropy = 0.0\nsamples = 3\nvalue = [3, 0]"] ;
1121 -> 1122 ;
1123 [label="entropy = 0.0\nsamples = 1\nvalue = [0, 1]"] ;
1121 -> 1123 ;
1124 [label="X[4] <= 2.5\nentropy = 0.9208\nsamples = 134\nvalue = [89, 45]"] ;
1118 -> 1124 ;
1125 [label="X[8] <= 0.5\nentropy = 0.8834\nsamples = 116\nvalue = [81, 35]"] ;
1124 -> 1125 ;
1126 [label="X[3] <= 221.5\nentropy = 0.925\nsamples = 97\nvalue = [64, 33]"] ;
1125 -> 1126 ;
1127 [label="entropy = 0.0\nsamples = 6\nvalue = [6, 0]"] ;
1126 -> 1127 ;
1128 [label="X[3] <= 227.0\nentropy = 0.9449\nsamples = 91\nvalue = [58, 33]"] ;
1126 -> 1128 ;
1129 [label="X[0] <= 28.5\nentropy = 0.7219\nsamples = 5\nvalue = [1, 4]"] ;
1128 -> 1129 ;
1130 [label="entropy = 0.0\nsamples = 1\nvalue = [1, 0]"] ;
1129 -> 1130 ;
1131 [label="entropy = 0.0\nsamples = 4\nvalue = [0, 4]"] ;
1129 -> 1131 ;
1132 [label="X[2] <= 2.5\nentropy = 0.9221\nsamples = 86\nvalue = [57, 29]"] ;
1128 -> 1132 ;
1133 [label="entropy = 0.0\nsamples = 9\nvalue = [9, 0]"] ;
1132 -> 1133 ;
1134 [label="X[3] <= 264.0\nentropy = 0.9556\nsamples = 77\nvalue = [48, 29]"] ;
1132 -> 1134 ;
1135 [label="X[2] <= 10.0\nentropy = 0.7219\nsamples = 20\nvalue = [16, 4]"] ;
1134 -> 1135 ;
1136 [label="entropy = 0.0\nsamples = 2\nvalue = [0, 2]"] ;
1135 -> 1136 ;
1137 [label="X[35] <= 0.5\nentropy = 0.5033\nsamples = 18\nvalue = [16, 2]"] ;
1135 -> 1137 ;
1138 [label="entropy = 0.0\nsamples = 11\nvalue = [11, 0]"] ;
1137 -> 1138 ;
1139 [label="X[6] <= 1.5\nentropy = 0.8631\nsamples = 7\nvalue = [5, 2]"] ;
1137 -> 1139 ;
1140 [label="entropy = 0.0\nsamples = 4\nvalue = [4, 0]"] ;
1139 -> 1140 ;
1141 [label="X[6] <= 3.0\nentropy = 0.9183\nsamples = 3\nvalue = [1, 2]"] ;
1139 -> 1141 ;
1142 [label="entropy = 0.0\nsamples = 2\nvalue = [0, 2]"] ;
1141 -> 1142 ;
1143 [label="entropy = 0.0\nsamples = 1\nvalue = [1, 0]"] ;
1141 -> 1143 ;
1144 [label="X[3] <= 267.5\nentropy = 0.9891\nsamples = 57\nvalue = [32, 25]"] ;
1134 -> 1144 ;
1145 [label="entropy = 0.0\nsamples = 3\nvalue = [0, 3]"] ;
1144 -> 1145 ;
1146 [label="X[3] <= 272.5\nentropy = 0.9751\nsamples = 54\nvalue = [32, 22]"] ;
1144 -> 1146 ;
1147 [label="entropy = 0.0\nsamples = 4\nvalue = [4, 0]"] ;
1146 -> 1147 ;
1148 [label="X[3] <= 279.5\nentropy = 0.9896\nsamples = 50\nvalue = [28, 22]"] ;
1146 -> 1148 ;
1149 [label="entropy = 0.0\nsamples = 3\nvalue = [0, 3]"] ;
1148 -> 1149 ;
1150 [label="X[1] <= 186.0\nentropy = 0.9734\nsamples = 47\nvalue = [28, 19]"] ;
1148 -> 1150 ;
1151 [label="entropy = 0.0\nsamples = 5\nvalue = [5, 0]"] ;
1150 -> 1151 ;
1152 [label="X[46] <= 0.5\nentropy = 0.9934\nsamples = 42\nvalue = [23, 19]"] ;
1150 -> 1152 ;
1153 [label="X[13] <= 0.5\nentropy = 0.9641\nsamples = 36\nvalue = [22, 14]"] ;
1152 -> 1153 ;
1154 [label="X[0] <= 51.5\nentropy = 0.9877\nsamples = 23\nvalue = [10, 13]"] ;
1153 -> 1154 ;
1155 [label="X[18] <= 0.5\nentropy = 0.9911\nsamples = 18\nvalue = [10, 8]"] ;
1154 -> 1155 ;
1156 [label="X[3] <= 350.0\nentropy = 0.9183\nsamples = 15\nvalue = [10, 5]"] ;
1155 -> 1156 ;
1157 [label="X[2] <= 13.5\nentropy = 0.9911\nsamples = 9\nvalue = [4, 5]"] ;
1156 -> 1157 ;
1158 [label="entropy = 0.0\nsamples = 3\nvalue = [3, 0]"] ;
1157 -> 1158 ;
1159 [label="X[5] <= 560.0\nentropy = 0.65\nsamples = 6\nvalue = [1, 5]"] ;
1157 -> 1159 ;
1160 [label="entropy = 0.0\nsamples = 5\nvalue = [0, 5]"] ;
1159 -> 1160 ;
1161 [label="entropy = 0.0\nsamples = 1\nvalue = [1, 0]"] ;
1159 -> 1161 ;
1162 [label="entropy = 0.0\nsamples = 6\nvalue = [6, 0]"] ;
1156 -> 1162 ;
1163 [label="entropy = 0.0\nsamples = 3\nvalue = [0, 3]"] ;
1155 -> 1163 ;
1164 [label="entropy = 0.0\nsamples = 5\nvalue = [0, 5]"] ;
1154 -> 1164 ;
1165 [label="X[2] <= 5.5\nentropy = 0.3912\nsamples = 13\nvalue = [12, 1]"] ;
1153 -> 1165 ;
1166 [label="entropy = 0.0\nsamples = 1\nvalue = [0, 1]"] ;
1165 -> 1166 ;
1167 [label="entropy = 0.0\nsamples = 12\nvalue = [12, 0]"] ;
1165 -> 1167 ;
1168 [label="X[2] <= 22.5\nentropy = 0.65\nsamples = 6\nvalue = [1, 5]"] ;
1152 -> 1168 ;
1169 [label="entropy = 0.0\nsamples = 5\nvalue = [0, 5]"] ;
1168 -> 1169 ;
1170 [label="entropy = 0.0\nsamples = 1\nvalue = [1, 0]"] ;
1168 -> 1170 ;
1171 [label="X[19] <= 0.5\nentropy = 0.4855\nsamples = 19\nvalue = [17, 2]"] ;
1125 -> 1171 ;
1172 [label="entropy = 0.0\nsamples = 17\nvalue = [17, 0]"] ;
1171 -> 1172 ;
1173 [label="entropy = 0.0\nsamples = 2\nvalue = [0, 2]"] ;
1171 -> 1173 ;
1174 [label="X[4] <= 5.5\nentropy = 0.9911\nsamples = 18\nvalue = [8, 10]"] ;
1124 -> 1174 ;
1175 [label="X[1] <= 12158.0\nentropy = 0.8631\nsamples = 14\nvalue = [4, 10]"] ;
1174 -> 1175 ;
1176 [label="X[0] <= 23.0\nentropy = 0.65\nsamples = 12\nvalue = [2, 10]"] ;
1175 -> 1176 ;
1177 [label="entropy = 0.0\nsamples = 1\nvalue = [1, 0]"] ;
1176 -> 1177 ;
1178 [label="X[0] <= 63.5\nentropy = 0.4395\nsamples = 11\nvalue = [1, 10]"] ;
1176 -> 1178 ;
1179 [label="entropy = 0.0\nsamples = 9\nvalue = [0, 9]"] ;
1178 -> 1179 ;
1180 [label="X[30] <= 0.5\nentropy = 1.0\nsamples = 2\nvalue = [1, 1]"] ;
1178 -> 1180 ;
1181 [label="entropy = 0.0\nsamples = 1\nvalue = [0, 1]"] ;
1180 -> 1181 ;
1182 [label="entropy = 0.0\nsamples = 1\nvalue = [1, 0]"] ;
1180 -> 1182 ;
1183 [label="entropy = 0.0\nsamples = 2\nvalue = [2, 0]"] ;
1175 -> 1183 ;
1184 [label="entropy = 0.0\nsamples = 4\nvalue = [4, 0]"] ;
1174 -> 1184 ;
1185 [label="X[2] <= 18.5\nentropy = 0.7407\nsamples = 396\nvalue = [313, 83]"] ;
505 -> 1185 ;
1186 [label="X[5] <= 267.5\nentropy = 0.5695\nsamples = 238\nvalue = [206, 32]"] ;
1185 -> 1186 ;
1187 [label="X[3] <= 186.5\nentropy = 0.684\nsamples = 176\nvalue = [144, 32]"] ;
1186 -> 1187 ;
1188 [label="entropy = 0.0\nsamples = 39\nvalue = [39, 0]"] ;
1187 -> 1188 ;
1189 [label="X[0] <= 72.0\nentropy = 0.7842\nsamples = 137\nvalue = [105, 32]"] ;
1187 -> 1189 ;
1190 [label="X[3] <= 193.5\nentropy = 0.7536\nsamples = 134\nvalue = [105, 29]"] ;
1189 -> 1190 ;
1191 [label="entropy = 0.0\nsamples = 3\nvalue = [0, 3]"] ;
1190 -> 1191 ;
1192 [label="X[2] <= 4.5\nentropy = 0.7189\nsamples = 131\nvalue = [105, 26]"] ;
1190 -> 1192 ;
1193 [label="X[3] <= 215.0\nentropy = 0.9597\nsamples = 34\nvalue = [21, 13]"] ;
1192 -> 1193 ;
1194 [label="entropy = 0.0\nsamples = 4\nvalue = [4, 0]"] ;
1193 -> 1194 ;
1195 [label="X[3] <= 387.0\nentropy = 0.9871\nsamples = 30\nvalue = [17, 13]"] ;
1193 -> 1195 ;
1196 [label="X[0] <= 45.5\nentropy = 0.999\nsamples = 27\nvalue = [14, 13]"] ;
1195 -> 1196 ;
1197 [label="X[0] <= 35.0\nentropy = 0.9852\nsamples = 21\nvalue = [9, 12]"] ;
1196 -> 1197 ;
1198 [label="X[4] <= 1.5\nentropy = 0.9975\nsamples = 17\nvalue = [9, 8]"] ;
1197 -> 1198 ;
1199 [label="entropy = 0.0\nsamples = 3\nvalue = [0, 3]"] ;
1198 -> 1199 ;
1200 [label="X[4] <= 5.5\nentropy = 0.9403\nsamples = 14\nvalue = [9, 5]"] ;
1198 -> 1200 ;
1201 [label="X[1] <= 542.0\nentropy = 0.8113\nsamples = 12\nvalue = [9, 3]"] ;
1200 -> 1201 ;
1202 [label="X[26] <= 0.5\nentropy = 0.9183\nsamples = 3\nvalue = [1, 2]"] ;
1201 -> 1202 ;
1203 [label="entropy = 0.0\nsamples = 2\nvalue = [0, 2]"] ;
1202 -> 1203 ;
1204 [label="entropy = 0.0\nsamples = 1\nvalue = [1, 0]"] ;
1202 -> 1204 ;
1205 [label="X[4] <= 2.5\nentropy = 0.5033\nsamples = 9\nvalue = [8, 1]"] ;
1201 -> 1205 ;
1206 [label="X[33] <= 0.5\nentropy = 1.0\nsamples = 2\nvalue = [1, 1]"] ;
1205 -> 1206 ;
1207 [label="entropy = 0.0\nsamples = 1\nvalue = [1, 0]"] ;
1206 -> 1207 ;
1208 [label="entropy = 0.0\nsamples = 1\nvalue = [0, 1]"] ;
1206 -> 1208 ;
1209 [label="entropy = 0.0\nsamples = 7\nvalue = [7, 0]"] ;
1205 -> 1209 ;
1210 [label="entropy = 0.0\nsamples = 2\nvalue = [0, 2]"] ;
1200 -> 1210 ;
1211 [label="entropy = 0.0\nsamples = 4\nvalue = [0, 4]"] ;
1197 -> 1211 ;
1212 [label="X[4] <= 1.5\nentropy = 0.65\nsamples = 6\nvalue = [5, 1]"] ;
1196 -> 1212 ;
1213 [label="X[3] <= 301.5\nentropy = 1.0\nsamples = 2\nvalue = [1, 1]"] ;
1212 -> 1213 ;
1214 [label="entropy = 0.0\nsamples = 1\nvalue = [0, 1]"] ;
1213 -> 1214 ;
1215 [label="entropy = 0.0\nsamples = 1\nvalue = [1, 0]"] ;
1213 -> 1215 ;
1216 [label="entropy = 0.0\nsamples = 4\nvalue = [4, 0]"] ;
1212 -> 1216 ;
1217 [label="entropy = 0.0\nsamples = 3\nvalue = [3, 0]"] ;
1195 -> 1217 ;
